{"learner":{"attributes":{"best_iteration":"69","best_ntree_limit":"70","scikit_learn":"{\"use_label_encoder\": false, \"n_estimators\": 70, \"objective\": \"binary:logistic\", \"max_depth\": 3, \"max_leaves\": null, \"max_bin\": null, \"grow_policy\": null, \"learning_rate\": 0.1, \"verbosity\": null, \"booster\": null, \"tree_method\": null, \"gamma\": 0.4, \"min_child_weight\": 5, \"max_delta_step\": null, \"subsample\": 0.75, \"sampling_method\": null, \"colsample_bytree\": 0.7, \"colsample_bylevel\": null, \"colsample_bynode\": null, \"reg_alpha\": null, \"reg_lambda\": null, \"scale_pos_weight\": 1, \"base_score\": null, \"missing\": NaN, \"num_parallel_tree\": null, \"random_state\": null, \"n_jobs\": null, \"monotone_constraints\": null, \"interaction_constraints\": null, \"importance_type\": null, \"gpu_id\": null, \"validate_parameters\": null, \"predictor\": null, \"enable_categorical\": false, \"max_cat_to_onehot\": null, \"eval_metric\": null, \"early_stopping_rounds\": null, \"callbacks\": null, \"kwargs\": {\"nthread\": 4, \"seed\": 60}, \"classes_\": [0.0, 1.0], \"n_classes_\": 2, \"_estimator_type\": \"classifier\"}"},"feature_names":[],"feature_types":[],"gradient_booster":{"model":{"gbtree_model_param":{"num_parallel_tree":"1","num_trees":"210","size_leaf_vector":"0"},"tree_info":[0,1,2,0,1,2,0,1,2,0,1,2,0,1,2,0,1,2,0,1,2,0,1,2,0,1,2,0,1,2,0,1,2,0,1,2,0,1,2,0,1,2,0,1,2,0,1,2,0,1,2,0,1,2,0,1,2,0,1,2,0,1,2,0,1,2,0,1,2,0,1,2,0,1,2,0,1,2,0,1,2,0,1,2,0,1,2,0,1,2,0,1,2,0,1,2,0,1,2,0,1,2,0,1,2,0,1,2,0,1,2,0,1,2,0,1,2,0,1,2,0,1,2,0,1,2,0,1,2,0,1,2,0,1,2,0,1,2,0,1,2,0,1,2,0,1,2,0,1,2,0,1,2,0,1,2,0,1,2,0,1,2,0,1,2,0,1,2,0,1,2,0,1,2,0,1,2,0,1,2,0,1,2,0,1,2,0,1,2,0,1,2,0,1,2,0,1,2,0,1,2,0,1,2,0,1,2,0,1,2],"trees":[{"base_weights":[-9.5738935E-1,2.9899253E-2,-1.9574164E0,7.501817E-2,-1.3691508E0,-1.9835455E0,-9.7713095E-1,1.5477894E-1,-8.241941E-2,-1.9178082E-1,-1.7517241E0,-1.9895532E0,-1.1532847E0,-1.6571429E0,-5.8064514E-1],"categories":[],"categories_nodes":[],"categories_segments":[],"categories_sizes":[],"default_left":[1,1,1,1,1,1,1,0,0,0,0,0,0,0,0],"id":0,"left_children":[1,3,5,7,9,11,13,-1,-1,-1,-1,-1,-1,-1,-1],"loss_changes":[9.053988E3,2.9144977E2,1.1475195E2,5.617234E1,6.463864E1,1.9833984E1,3.1459007E1,0E0,0E0,0E0,0E0,0E0,0E0,0E0,0E0],"parents":[2147483647,0,0,1,1,2,2,3,3,4,4,5,5,6,6],"right_children":[2,4,6,8,10,12,14,-1,-1,-1,-1,-1,-1,-1,-1],"split_conditions":[1.3963683E-1,1.7806865E-1,1.3359774E-2,2.3154381E-3,1.649571E-1,3.4518752E-1,6.705787E-2,1.5477895E-2,-8.241941E-3,-1.9178083E-2,-1.7517242E-1,-1.9895533E-1,-1.1532847E-1,-1.657143E-1,-5.8064517E-2],"split_indices":[233,257,72,56,284,342,210,0,0,0,0,0,0,0,0],"split_type":[0,0,0,0,0,0,0,0,0,0,0,0,0,0,0],"sum_hessian":[9.16925E3,4.6145E3,4.55475E3,4.47125E3,1.4325E2,4.4355E3,1.1925E2,2.96775E3,1.5035E3,3.55E1,1.0775E2,4.40225E3,3.325E1,4.275E1,7.65E1],"tree_param":{"num_deleted":"0","num_feature":"360","num_nodes":"15","size_leaf_vector":"0"}},{"base_weights":[-9.26223E-2,-2.751381E-1,-7.2684504E-2,5.2401748E-2,-3.221731E-1,-1.7759497E-1,-3.7838925E-2,-4.235294E-2,1.1351352E0,-1.9672132E-1,-4.6785226E-1,-1.8349738E-1,1.0243902E0,-1.55687025E-2,-2.4483044E-1],"categories":[],"categories_nodes":[],"categories_segments":[],"categories_sizes":[],"default_left":[1,1,1,1,1,1,1,0,0,0,0,0,0,0,0],"id":1,"left_children":[1,3,5,7,9,11,13,-1,-1,-1,-1,-1,-1,-1,-1],"loss_changes":[3.3433914E1,1.3959152E1,3.0296005E1,1.1795096E1,1.4373192E1,1.4849007E1,2.8686102E1,0E0,0E0,0E0,0E0,0E0,0E0,0E0,0E0],"parents":[2147483647,0,0,1,1,2,2,3,3,4,4,5,5,6,6],"right_children":[2,4,6,8,10,12,14,-1,-1,-1,-1,-1,-1,-1,-1],"split_conditions":[2.2601353E-3,3.2379414E-4,1.4165549E-3,4.12575E-1,5.269802E-1,8.5970366E-1,7.058143E-1,-4.235294E-3,1.1351352E-1,-1.9672131E-2,-4.6785228E-2,-1.8349739E-2,1.0243902E-1,-1.5568703E-3,-2.4483046E-2],"split_indices":[290,125,78,21,211,61,72,0,0,0,0,0,0,0,0],"split_type":[0,0,0,0,0,0,0,0,0,0,0,0,0,0,0],"sum_hessian":[9.19225E3,9.04E2,8.28825E3,1.135E2,7.905E2,2.0655E3,6.22275E3,1.0525E2,8.25E0,4.26E2,3.645E2,2.05625E3,9.25E0,5.61925E3,6.035E2],"tree_param":{"num_deleted":"0","num_feature":"360","num_nodes":"15","size_leaf_vector":"0"}},{"base_weights":[-9.447712E-1,-1.949546E0,7.2655216E-2,-1.975546E0,-7.7227724E-1,1.0199356E-1,-1.0451612E0,-1.9860328E0,-1.1701245E0,-1.6551725E0,-4.1095892E-1,-2.875817E-1,1.1591321E-1,-1.432258E0,-2.6415095E-1],"categories":[],"categories_nodes":[],"categories_segments":[],"categories_sizes":[],"default_left":[1,1,1,1,1,1,1,0,0,0,0,0,0,0,0],"id":2,"left_children":[1,3,5,7,9,11,13,-1,-1,-1,-1,-1,-1,-1,-1],"loss_changes":[9.343055E3,1.3922266E2,1.4906097E2,3.566992E1,3.1539413E1,2.4038498E1,3.4767143E1,0E0,0E0,0E0,0E0,0E0,0E0,0E0,0E0],"parents":[2147483647,0,0,1,1,2,2,3,3,4,4,5,5,6,6],"right_children":[2,4,6,8,10,12,14,-1,-1,-1,-1,-1,-1,-1,-1],"split_conditions":[2.653489E-1,1.9430587E-1,1.7417184E-1,2.2828302E-1,9.994124E-2,1.1336465E-1,1.8639743E-1,-1.9860329E-1,-1.17012456E-1,-1.6551726E-1,-4.1095894E-2,-2.8758172E-2,1.1591322E-2,-1.432258E-1,-2.6415095E-2],"split_indices":[251,257,357,65,92,176,221,0,0,0,0,0,0,0,0],"split_type":[0,0,0,0,0,0,0,0,0,0,0,0,0,0,0],"sum_hessian":[9.13825E3,4.59725E3,4.541E3,4.49725E3,1E2,4.42575E3,1.1525E2,4.438E3,5.925E1,2.8E1,7.2E1,1.52E2,4.27375E3,7.65E1,3.875E1],"tree_param":{"num_deleted":"0","num_feature":"360","num_nodes":"15","size_leaf_vector":"0"}},{"base_weights":[-8.537912E-1,4.920354E-2,-1.7847353E0,7.877932E-2,-1.1716802E0,-1.8114446E0,-6.432252E-1,1.9004627E-1,-3.22946E-2,-1.5679986E0,-5.168786E-1,-1.8141203E0,-1.1481637E0,-1.2602311E0,-1.2606514E-1],"categories":[],"categories_nodes":[],"categories_segments":[],"categories_sizes":[],"default_left":[1,1,1,1,1,1,1,0,0,0,0,0,0,0,0],"id":3,"left_children":[1,3,5,7,9,11,13,-1,-1,-1,-1,-1,-1,-1,-1],"loss_changes":[7.68111E3,1.6760608E2,1.360039E2,5.5996433E1,2.7680664E1,5.716797E0,3.315796E1,0E0,0E0,0E0,0E0,0E0,0E0,0E0,0E0],"parents":[2147483647,0,0,1,1,2,2,3,3,4,4,5,5,6,6],"right_children":[2,4,6,8,10,12,14,-1,-1,-1,-1,-1,-1,-1,-1],"split_conditions":[2.6145995E-1,1.746419E-1,2.3392223E-1,4.221511E-3,1.4134981E-2,3.6158246E-1,1.2486807E-1,1.9004626E-2,-3.2294602E-3,-1.5679987E-1,-5.1687863E-2,-1.8141203E-1,-1.1481637E-1,-1.2602311E-1,-1.2606514E-2],"split_indices":[251,233,357,296,72,42,228,0,0,0,0,0,0,0,0],"split_type":[0,0,0,0,0,0,0,0,0,0,0,0,0,0,0],"sum_hessian":[9.136138E3,4.638167E3,4.49797E3,4.529379E3,1.0878824E2,4.3945586E3,1.03411736E2,2.2623682E3,2.2670107E3,6.690151E1,4.1886726E1,4.375174E3,1.9384432E1,4.649879E1,5.691294E1],"tree_param":{"num_deleted":"0","num_feature":"360","num_nodes":"15","size_leaf_vector":"0"}},{"base_weights":[-8.896163E-2,-1.2079981E-1,1.9985097E-2,-5.2154833E-1,-1.1212451E-1,-3.0248106E-2,2.0419087E-1,-6.526019E-1,1.7903082E-1,-9.154296E-2,-2.6861277E-1,-3.3838654E-1,4.1746045E-4,2.7172473E-1,-3.0960968E-1],"categories":[],"categories_nodes":[],"categories_segments":[],"categories_sizes":[],"default_left":[1,1,1,1,1,1,1,0,0,0,0,0,0,0,0],"id":4,"left_children":[1,3,5,7,9,11,13,-1,-1,-1,-1,-1,-1,-1,-1],"loss_changes":[3.1887085E1,2.4672585E1,1.9249722E1,1.3930668E1,2.2405159E1,1.5448867E1,1.5550695E1,0E0,0E0,0E0,0E0,0E0,0E0,0E0,0E0],"parents":[2147483647,0,0,1,1,2,2,3,3,4,4,5,5,6,6],"right_children":[2,4,6,8,10,12,14,-1,-1,-1,-1,-1,-1,-1,-1],"split_conditions":[5.1530015E-1,2.8726546E-4,2.4269605E-2,5.0133653E-3,7.4329174E-1,2.9478733E-5,9.943976E-1,-6.5260194E-2,1.7903082E-2,-9.1542965E-3,-2.6861278E-2,-3.3838656E-2,4.1746047E-5,2.7172474E-2,-3.0960968E-2],"split_indices":[109,296,128,182,200,170,242,0,0,0,0,0,0,0,0],"split_type":[0,0,0,0,0,0,0,0,0,0,0,0,0,0,0],"sum_hessian":[9.191203E3,7.11255E3,2.0786536E3,1.4945549E2,6.963094E3,1.6339174E3,4.4473605E2,1.259611E2,2.3494383E1,6.155146E3,8.079481E2,1.4697961E2,1.4869377E3,3.934873E2,5.1248756E1],"tree_param":{"num_deleted":"0","num_feature":"360","num_nodes":"15","size_leaf_vector":"0"}},{"base_weights":[-8.6412066E-1,-1.7599269E0,5.5595964E-2,-1.8010702E0,-4.332762E-1,7.306979E-2,-1.2096887E0,-1.8100231E0,-1.332308E0,-1.6449766E0,-2.3462087E-1,9.541349E-2,-3.3272693E-1,-1.7186096E0,-3.5367858E-1],"categories":[],"categories_nodes":[],"categories_segments":[],"categories_sizes":[],"default_left":[1,1,1,1,1,1,1,0,0,0,0,0,0,0,0],"id":5,"left_children":[1,3,5,7,9,11,13,-1,-1,-1,-1,-1,-1,-1,-1],"loss_changes":[7.541492E3,2.5232031E2,9.996535E1,1.646289E1,3.3505737E1,4.0441673E1,2.6224792E1,0E0,0E0,0E0,0E0,0E0,0E0,0E0,0E0],"parents":[2147483647,0,0,1,1,2,2,3,3,4,4,5,5,6,6],"right_children":[2,4,6,8,10,12,14,-1,-1,-1,-1,-1,-1,-1,-1],"split_conditions":[2.2181995E-1,1.937379E-1,3.1704143E-2,1.5050323E-1,4.4760503E-2,8.715987E-2,1.3934319E-1,-1.810023E-1,-1.332308E-1,-1.6449766E-1,-2.3462087E-2,9.5413495E-3,-3.3272695E-2,-1.7186096E-1,-3.5367858E-2],"split_indices":[65,257,72,206,239,165,359,0,0,0,0,0,0,0,0],"split_type":[0,0,0,0,0,0,0,0,0,0,0,0,0,0,0],"sum_hessian":[9.152423E3,4.6360176E3,4.516406E3,4.4962188E3,1.3979839E2,4.4558125E3,6.0593376E1,4.4091475E3,8.707166E1,1.866577E1,1.2113261E2,4.223998E3,2.3181406E2,3.736888E1,2.3224497E1],"tree_param":{"num_deleted":"0","num_feature":"360","num_nodes":"15","size_leaf_vector":"0"}},{"base_weights":[-7.8862673E-1,3.3281885E-2,-1.6533597E0,6.81153E-2,-8.8311535E-1,-1.6758369E0,-6.545912E-1,1.8010193E-1,-9.487736E-3,4.6505257E-1,-1.1589062E0,-1.6785797E0,-1.0428286E0,-1.1953979E0,-1.059611E-3],"categories":[],"categories_nodes":[],"categories_segments":[],"categories_sizes":[],"default_left":[1,1,1,1,1,1,1,0,0,0,0,0,0,0,0],"id":6,"left_children":[1,3,5,7,9,11,13,-1,-1,-1,-1,-1,-1,-1,-1],"loss_changes":[6.406676E3,1.476154E2,9.7515625E1,3.8710373E1,6.350299E1,5.708008E0,3.4748936E1,0E0,0E0,0E0,0E0,0E0,0E0,0E0,0E0],"parents":[2147483647,0,0,1,1,2,2,3,3,4,4,5,5,6,6],"right_children":[2,4,6,8,10,12,14,-1,-1,-1,-1,-1,-1,-1,-1],"split_conditions":[2.7207696E-1,8.62553E-2,2.4197197E-1,2.7341284E-3,1.0146506E-2,3.6158246E-1,1.7247334E-1,1.8010193E-2,-9.4877364E-4,4.6505257E-2,-1.1589062E-1,-1.6785797E-1,-1.04282856E-1,-1.1953979E-1,-1.059611E-4],"split_indices":[251,359,357,296,77,42,276,0,0,0,0,0,0,0,0],"split_type":[0,0,0,0,0,0,0,0,0,0,0,0,0,0,0],"sum_hessian":[9.013123E3,4.6214775E3,4.391646E3,4.453134E3,1.6834357E2,4.294324E3,9.732155E1,1.8222206E3,2.630913E3,2.8472616E1,1.3987094E2,4.2741523E3,2.017165E1,5.2799812E1,4.4521736E1],"tree_param":{"num_deleted":"0","num_feature":"360","num_nodes":"15","size_leaf_vector":"0"}},{"base_weights":[-7.7443145E-2,-2.1096908E-1,-4.880714E-2,-2.1785474E-1,1.2482654E0,-1.6827528E-1,-1.4900396E-2,9.616334E-1,-2.2452238E-1,-8.791165E-2,-2.8414288E-1,-1.6871156E-1,9.446783E-3],"categories":[],"categories_nodes":[],"categories_segments":[],"categories_sizes":[],"default_left":[1,1,1,1,0,1,1,0,0,0,0,0,0],"id":7,"left_children":[1,3,5,7,-1,9,11,-1,-1,-1,-1,-1,-1],"loss_changes":[3.502074E1,1.6524757E1,3.0561111E1,1.2883934E1,0E0,1.5505852E1,2.2014732E1,0E0,0E0,0E0,0E0,0E0,0E0],"parents":[2147483647,0,0,1,1,2,2,3,3,5,5,6,6],"right_children":[2,4,6,8,-1,10,12,-1,-1,-1,-1,-1,-1],"split_conditions":[4.653992E-1,7.9634166E-1,9.777332E-4,7.3833525E-7,1.2482654E-1,4.5893568E-1,1.6328047E-3,9.616334E-2,-2.2452239E-2,-8.791165E-3,-2.8414289E-2,-1.6871156E-2,9.446783E-4],"split_indices":[43,307,75,53,0,338,182,0,0,0,0,0,0],"split_type":[0,0,0,0,0,0,0,0,0,0,0,0,0],"sum_hessian":[9.160678E3,1.6165499E3,7.5441274E3,1.6098044E3,6.745449E0,1.6669119E3,5.877216E3,8.243974E0,1.6015604E3,9.852909E2,6.81621E2,8.02372E2,5.0748438E3],"tree_param":{"num_deleted":"0","num_feature":"360","num_nodes":"13","size_leaf_vector":"0"}},{"base_weights":[-7.9045004E-1,-1.6471384E0,3.0834138E-2,-1.6635216E0,-5.898148E-1,6.396785E-2,-8.559075E-1,-1.6707624E0,-1.0228668E0,-1.2015638E0,2.091068E-2,8.347552E-2,-2.0079088E-1,-1.2976259E0,-2.9558328E-1],"categories":[],"categories_nodes":[],"categories_segments":[],"categories_sizes":[],"default_left":[1,1,1,1,1,1,1,0,0,0,0,0,0,0,0],"id":8,"left_children":[1,3,5,7,9,11,13,-1,-1,-1,-1,-1,-1,-1,-1],"loss_changes":[6.35693E3,7.562207E1,1.3561276E2,1.8489258E1,2.5813993E1,2.2992676E1,4.0766052E1,0E0,0E0,0E0,0E0,0E0,0E0,0E0,0E0],"parents":[2147483647,0,0,1,1,2,2,3,3,4,4,5,5,6,6],"right_children":[2,4,6,8,10,12,14,-1,-1,-1,-1,-1,-1,-1,-1],"split_conditions":[2.2981612E-1,2.0792598E-1,1.2737623E-1,2.2832966E-1,1.6927525E-1,1.0042419E-1,3.692675E-1,-1.6707624E-1,-1.0228669E-1,-1.20156385E-1,2.091068E-3,8.347552E-3,-2.007909E-2,-1.2976259E-1,-2.9558329E-2],"split_indices":[251,221,228,65,206,192,59,0,0,0,0,0,0,0,0],"split_type":[0,0,0,0,0,0,0,0,0,0,0,0,0,0,0],"sum_hessian":[9.033988E3,4.4211963E3,4.6127925E3,4.3531704E3,6.802604E1,4.447535E3,1.6525732E2,4.30293E3,5.0240154E1,3.3501225E1,3.4524815E1,4.1429624E3,3.0457266E2,9.1673134E1,7.35842E1],"tree_param":{"num_deleted":"0","num_feature":"360","num_nodes":"15","size_leaf_vector":"0"}},{"base_weights":[-7.2033584E-1,3.6386546E-2,-1.5427632E0,6.249155E-2,-1.1264832E0,-1.5636137E0,-6.3589054E-1,2.5976086E-1,1.6257774E-2,-1.3911213E0,3.7952554E-1,-1.5692413E0,-6.6042095E-1,-2.5939846E-2,-1.2744919E0],"categories":[],"categories_nodes":[],"categories_segments":[],"categories_sizes":[],"default_left":[1,1,1,1,1,1,1,0,0,0,0,0,0,0,0],"id":9,"left_children":[1,3,5,7,9,11,13,-1,-1,-1,-1,-1,-1,-1,-1],"loss_changes":[5.499615E3,1.3980855E2,7.907617E1,4.106617E1,4.0829056E1,2E1,3.7694145E1,0E0,0E0,0E0,0E0,0E0,0E0,0E0,0E0],"parents":[2147483647,0,0,1,1,2,2,3,3,4,4,5,5,6,6],"right_children":[2,4,6,8,10,12,14,-1,-1,-1,-1,-1,-1,-1,-1],"split_conditions":[1.9717278E-1,2.0700836E-1,1.7051682E-2,8.207741E-4,7.5195944E-3,3.3931854E-1,5.785624E-2,2.5976086E-2,1.6257775E-3,-1.3911213E-1,3.7952553E-2,-1.5692413E-1,-6.6042095E-2,-2.5939846E-3,-1.274492E-1],"split_indices":[65,257,72,296,264,249,359,0,0,0,0,0,0,0,0],"split_type":[0,0,0,0,0,0,0,0,0,0,0,0,0,0,0],"sum_hessian":[8.835773E3,4.602203E3,4.2335703E3,4.502083E3,1.00119995E2,4.1377134E3,9.5856804E1,8.539308E2,3.6481523E3,8.522111E1,1.48988905E1,4.111359E3,2.6354954E1,4.956047E1,4.6296333E1],"tree_param":{"num_deleted":"0","num_feature":"360","num_nodes":"15","size_leaf_vector":"0"}},{"base_weights":[-7.0133395E-2,-1.611135E-1,-3.253638E-2,-1.441195E-1,-6.3594973E-1,-2.7530766E-1,-1.9081015E-2,-9.367113E-2,-2.7832204E-1,3.1654534E-1,-8.538567E-1,-2.11537E-1,-1.0046736E0,-1.9799031E-1,-3.9562362E-4],"categories":[],"categories_nodes":[],"categories_segments":[],"categories_sizes":[],"default_left":[1,1,1,1,1,1,1,0,0,0,0,0,0,0,0],"id":10,"left_children":[1,3,5,7,9,11,13,-1,-1,-1,-1,-1,-1,-1,-1],"loss_changes":[3.1482796E1,2.162706E1,2.1276375E1,1.7575333E1,1.9511765E1,1.5696926E1,2.063926E1,0E0,0E0,0E0,0E0,0E0,0E0,0E0,0E0],"parents":[2147483647,0,0,1,1,2,2,3,3,4,4,5,5,6,6],"right_children":[2,4,6,8,10,12,14,-1,-1,-1,-1,-1,-1,-1,-1],"split_conditions":[4.0967786E-1,9.1848195E-1,1.255271E-4,5.5223143E-1,4.3534315E-1,9.701433E-1,2.97121E-4,-9.367113E-3,-2.7832204E-2,3.1654533E-2,-8.538567E-2,-2.1153701E-2,-1.0046736E-1,-1.9799031E-2,-3.956236E-5],"split_indices":[358,125,297,180,292,14,101,0,0,0,0,0,0,0,0],"split_type":[0,0,0,0,0,0,0,0,0,0,0,0,0,0,0],"sum_hessian":[9.204467E3,2.6905017E3,6.5139644E3,2.5987964E3,9.17053E1,3.410493E2,6.172915E3,1.8900148E3,7.087817E2,1.6989536E1,7.471576E1,3.1481415E2,2.6235123E1,5.828296E2,5.5900854E3],"tree_param":{"num_deleted":"0","num_feature":"360","num_nodes":"15","size_leaf_vector":"0"}},{"base_weights":[-7.191549E-1,-1.535374E0,4.3347556E-2,-1.5628643E0,-4.4036123E-1,6.806397E-2,-8.210216E-1,-1.5692486E0,-1.136268E0,-1.2770891E-1,-1.1499312E0,-4.3400727E-2,1.0595862E-1,-1.1408782E0,-5.214009E-2],"categories":[],"categories_nodes":[],"categories_segments":[],"categories_sizes":[],"default_left":[1,1,1,1,1,1,1,0,0,0,0,0,0,0,0],"id":11,"left_children":[1,3,5,7,9,11,13,-1,-1,-1,-1,-1,-1,-1,-1],"loss_changes":[5.516809E3,1.2818848E2,9.798523E1,9.589844E0,2.3422667E1,1.883194E1,3.129831E1,0E0,0E0,0E0,0E0,0E0,0E0,0E0,0E0],"parents":[2147483647,0,0,1,1,2,2,3,3,4,4,5,5,6,6],"right_children":[2,4,6,8,10,12,14,-1,-1,-1,-1,-1,-1,-1,-1],"split_conditions":[1.9743788E-1,2.004018E-1,1.5594617E-1,1.6979262E-1,1.452173E-1,2.672635E-1,1.8765023E-1,-1.5692486E-1,-1.136268E-1,-1.2770891E-2,-1.1499312E-1,-4.3400726E-3,1.0595862E-2,-1.1408782E-1,-5.214009E-3],"split_indices":[65,257,357,206,189,173,257,0,0,0,0,0,0,0,0],"split_type":[0,0,0,0,0,0,0,0,0,0,0,0,0,0,0],"sum_hessian":[8.863102E3,4.280276E3,4.5828257E3,4.175034E3,1.0524144E2,4.4563193E3,1.2650606E2,4.110835E3,6.4199615E1,7.387183E1,3.1369598E1,1.1305964E3,3.325723E3,8.8998604E1,3.7507454E1],"tree_param":{"num_deleted":"0","num_feature":"360","num_nodes":"15","size_leaf_vector":"0"}},{"base_weights":[-6.602606E-1,3.4826487E-2,-1.4619714E0,6.0775414E-2,-8.3492893E-1,-1.484711E0,-5.036865E-1,2.504719E-1,1.8540364E-2,-1.402292E-1,-1.3668658E0,-5.888568E-1,-1.4874239E0,-2.2179903E-2,-1.0568937E0],"categories":[],"categories_nodes":[],"categories_segments":[],"categories_sizes":[],"default_left":[1,1,1,1,1,1,1,0,0,0,0,0,0,0,0],"id":12,"left_children":[1,3,5,7,9,11,13,-1,-1,-1,-1,-1,-1,-1,-1],"loss_changes":[4.8266494E3,1.0477488E2,8.690039E1,3.6101807E1,4.950889E1,8.671875E0,2.5214258E1,0E0,0E0,0E0,0E0,0E0,0E0,0E0,0E0],"parents":[2147483647,0,0,1,1,2,2,3,3,4,4,5,5,6,6],"right_children":[2,4,6,8,10,12,14,-1,-1,-1,-1,-1,-1,-1,-1],"split_conditions":[2.7207696E-1,1.580624E-1,2.3316082E-1,2.2319988E-3,9.9619836E-2,3.8385674E-2,3.133505E-1,2.5047189E-2,1.8540364E-3,-1.4022919E-2,-1.3668658E-1,-5.8885682E-2,-1.487424E-1,-2.2179903E-3,-1.0568937E-1],"split_indices":[251,206,357,290,290,233,89,0,0,0,0,0,0,0,0],"split_type":[0,0,0,0,0,0,0,0,0,0,0,0,0,0,0],"sum_hessian":[8.660322E3,4.639131E3,4.021192E3,4.505636E3,1.3349437E2,3.9274463E3,9.374575E1,8.195847E2,3.6860515E3,5.843845E1,7.5055916E1,1.2515661E1,3.9149304E3,5.067702E1,4.306873E1],"tree_param":{"num_deleted":"0","num_feature":"360","num_nodes":"15","size_leaf_vector":"0"}},{"base_weights":[-6.2183443E-2,-2.178533E-1,-4.495524E-2,-1.00563526E-1,-3.5549515E-1,-2.1863347E-3,-1.0757728E-1,-2.0075925E-3,-3.967971E-1,-2.5730795E-1,-6.843829E-1,-1.18078426E-1,3.669366E-2,-8.431198E-2,-3.145018E-1],"categories":[],"categories_nodes":[],"categories_segments":[],"categories_sizes":[],"default_left":[1,1,1,1,1,1,1,0,0,0,0,0,0,0,0],"id":13,"left_children":[1,3,5,7,9,11,13,-1,-1,-1,-1,-1,-1,-1,-1],"loss_changes":[2.4605495E1,1.4724628E1,2.2135626E1,1.4452131E1,1.3395111E1,2.2137075E1,1.612019E1,0E0,0E0,0E0,0E0,0E0,0E0,0E0,0E0],"parents":[2147483647,0,0,1,1,2,2,3,3,4,4,5,5,6,6],"right_children":[2,4,6,8,10,12,14,-1,-1,-1,-1,-1,-1,-1,-1],"split_conditions":[2.2619516E-3,5.358865E-1,2.595574E-1,4.9874488E-1,8.647564E-4,7.5666956E-4,6.6240737E-3,-2.0075926E-4,-3.967971E-2,-2.5730794E-2,-6.843829E-2,-1.1807843E-2,3.669366E-3,-8.431198E-3,-3.145018E-2],"split_indices":[290,211,173,88,242,206,156,0,0,0,0,0,0,0,0],"split_type":[0,0,0,0,0,0,0,0,0,0,0,0,0,0,0],"sum_hessian":[9.177263E3,9.1329614E2,8.263967E3,4.9403833E2,4.1925784E2,4.9109653E3,3.3530017E3,3.7146118E2,1.2257714E2,3.2424042E2,9.501742E1,1.2331622E3,3.677803E3,3.015379E3,3.3762292E2],"tree_param":{"num_deleted":"0","num_feature":"360","num_nodes":"15","size_leaf_vector":"0"}},{"base_weights":[-6.72578E-1,-1.451306E0,3.1672142E-2,-3.2012865E-2,-1.4757541E0,5.0469864E-2,-9.872502E-1,-1.2385682E0,1.5428624E-1,-1.4843863E0,-7.096542E-1,1.3264924E-1,-2.2907803E-2,-1.2001543E0,1.2421029E-1],"categories":[],"categories_nodes":[],"categories_segments":[],"categories_sizes":[],"default_left":[1,1,1,1,1,1,1,0,0,0,0,0,0,0,0],"id":14,"left_children":[1,3,5,7,9,11,13,-1,-1,-1,-1,-1,-1,-1,-1],"loss_changes":[4.734256E3,1.4220117E2,8.6891045E1,1.6025116E1,2.5598633E1,2.6854017E1,1.9595497E1,0E0,0E0,0E0,0E0,0E0,0E0,0E0,0E0],"parents":[2147483647,0,0,1,1,2,2,3,3,4,4,5,5,6,6],"right_children":[2,4,6,8,10,12,14,-1,-1,-1,-1,-1,-1,-1,-1],"split_conditions":[8.930841E-2,4.6511643E-2,2.7401337E-1,9.430844E-2,2.0316797E-1,1.2774097E-3,3.874182E-1,-1.2385682E-1,1.5428624E-2,-1.4843863E-1,-7.0965424E-2,1.3264924E-2,-2.2907804E-3,-1.20015435E-1,1.242103E-2],"split_indices":[359,258,216,53,257,87,308,0,0,0,0,0,0,0,0],"split_type":[0,0,0,0,0,0,0,0,0,0,0,0,0,0,0],"sum_hessian":[8.631466E3,4.098485E3,4.5329805E3,6.944225E1,4.0290427E3,4.4518013E3,8.117916E1,8.532665E0,6.0909588E1,3.983223E3,4.581971E1,2.099574E3,2.3522275E3,6.8061874E1,1.3117287E1],"tree_param":{"num_deleted":"0","num_feature":"360","num_nodes":"15","size_leaf_vector":"0"}},{"base_weights":[-6.184047E-1,3.0571794E-2,-1.3941048E0,6.1114904E-2,-8.686141E-1,-1.4182653E0,-6.1210275E-1,1.2899362E-1,-2.1564614E-2,-1.3444276E0,-1.319398E-1,-1.4197882E0,-4.8434073E-1,-3.3526963E-1,-1.190785E0],"categories":[],"categories_nodes":[],"categories_segments":[],"categories_sizes":[],"default_left":[1,1,1,1,1,1,1,0,0,0,0,0,0,0,0],"id":15,"left_children":[1,3,5,7,9,11,13,-1,-1,-1,-1,-1,-1,-1,-1],"loss_changes":[4.2759478E3,1.2709217E2,7.2234375E1,2.5115282E1,5.3110893E1,4.649414E0,1.845898E1,0E0,0E0,0E0,0E0,0E0,0E0,0E0,0E0],"parents":[2147483647,0,0,1,1,2,2,3,3,4,4,5,5,6,6],"right_children":[2,4,6,8,10,12,14,-1,-1,-1,-1,-1,-1,-1,-1],"split_conditions":[1.4192492E-1,1.5574785E-1,2.3772779E-1,3.1738458E-3,1.9169977E-1,5.2322006E-1,2.674634E-1,1.2899362E-2,-2.1564614E-3,-1.3444276E-1,-1.319398E-2,-1.4197883E-1,-4.8434075E-2,-3.3526964E-2,-1.1907851E-1],"split_indices":[233,257,357,71,285,204,254,0,0,0,0,0,0,0,0],"split_type":[0,0,0,0,0,0,0,0,0,0,0,0,0,0,0],"sum_hessian":[8.492861E3,4.62467E3,3.8681917E3,4.4736436E3,1.5102652E2,3.7514739E3,1.16717834E2,2.4564075E3,2.017236E3,9.1258316E1,5.97682E1,3.7448472E3,6.6267085E0,8.001784E1,3.6699997E1],"tree_param":{"num_deleted":"0","num_feature":"360","num_nodes":"15","size_leaf_vector":"0"}},{"base_weights":[-5.7535037E-2,-4.2574666E-2,-2.3005244E-1,-5.689855E-2,8.4330685E-2,-7.222941E-1,-1.8288983E-1,9.048782E-1,-5.892383E-2,3.7376934E-1,4.3952423E-3,-1.12512946E-1,-9.785909E-1,-1.1133446E-1,-4.6304372E-1],"categories":[],"categories_nodes":[],"categories_segments":[],"categories_sizes":[],"default_left":[1,1,1,1,1,1,1,0,0,0,0,0,0,0,0],"id":16,"left_children":[1,3,5,7,9,11,13,-1,-1,-1,-1,-1,-1,-1,-1],"loss_changes":[2.3643326E1,1.53368435E1,1.6840446E1,1.4817478E1,1.979976E1,9.827042E0,1.3349674E1,0E0,0E0,0E0,0E0,0E0,0E0,0E0,0E0],"parents":[2147483647,0,0,1,1,2,2,3,3,4,4,5,5,6,6],"right_children":[2,4,6,8,10,12,14,-1,-1,-1,-1,-1,-1,-1,-1],"split_conditions":[7.4561864E-1,7.550806E-1,1.060756E-1,7.043639E-5,1.1921106E-1,2.9599518E-1,5.647105E-1,9.048782E-2,-5.892383E-3,3.7376937E-2,4.3952424E-4,-1.1251295E-2,-9.785909E-2,-1.1133446E-2,-4.630437E-2],"split_indices":[99,349,184,125,15,55,216,0,0,0,0,0,0,0,0],"split_type":[0,0,0,0,0,0,0,0,0,0,0,0,0,0,0],"sum_hessian":[9.163592E3,8.433502E3,7.3009E2,7.5786475E3,8.5485474E2,6.258352E1,6.6750653E2,1.4988598E1,7.5636587E3,1.8420175E2,6.70653E2,1.8946062E1,4.363746E1,5.328152E2,1.3469135E2],"tree_param":{"num_deleted":"0","num_feature":"360","num_nodes":"15","size_leaf_vector":"0"}},{"base_weights":[-6.0987794E-1,-1.3780526E0,4.299043E-2,-1.4044145E0,5.8511645E-3,-9.616393E-1,5.9425924E-2,-1.4156535E0,-6.9418013E-1,-9.296891E-1,4.7354856E-1,-1.2413385E0,-6.491844E-3,-3.2157168E-1,7.393039E-2],"categories":[],"categories_nodes":[],"categories_segments":[],"categories_sizes":[],"default_left":[1,1,1,1,1,1,1,0,0,0,0,0,0,0,0],"id":17,"left_children":[1,3,5,7,9,11,13,-1,-1,-1,-1,-1,-1,-1,-1],"loss_changes":[4.234879E3,1.4154053E2,7.544182E1,2.9404785E1,3.26064E1,1.9640434E1,2.4852932E1,0E0,0E0,0E0,0E0,0E0,0E0,0E0,0E0],"parents":[2147483647,0,0,1,1,2,2,3,3,4,4,5,5,6,6],"right_children":[2,4,6,8,10,12,14,-1,-1,-1,-1,-1,-1,-1,-1],"split_conditions":[8.940497E-2,3.6521322E-1,5.34233E-2,1.8708557E-1,1.3924907E-1,1.7461893E-1,4.5249082E-2,-1.4156535E-1,-6.941801E-2,-9.296891E-2,4.735486E-2,-1.2413385E-1,-6.491844E-4,-3.2157168E-2,7.3930393E-3],"split_indices":[359,218,233,257,44,158,326,0,0,0,0,0,0,0,0],"split_type":[0,0,0,0,0,0,0,0,0,0,0,0,0,0,0],"sum_hessian":[8.443021E3,3.8784587E3,4.564563E3,3.8059443E3,7.251427E1,7.254741E1,4.492015E3,3.745679E3,6.026539E1,2.3839684E1,4.8674583E1,5.5883278E1,1.666413E1,1.6396179E2,4.3280537E3],"tree_param":{"num_deleted":"0","num_feature":"360","num_nodes":"15","size_leaf_vector":"0"}},{"base_weights":[-5.81029E-1,2.0730072E-3,-1.3404417E0,2.6398074E-2,-9.409571E-1,-1.3555303E0,-4.301163E-1,-4.7044393E-2,1.2668964E-1,2.6362807E-1,-1.1743387E0,-1.3597425E0,-3.452977E-1,3.139887E-1,-9.9295187E-1],"categories":[],"categories_nodes":[],"categories_segments":[],"categories_sizes":[],"default_left":[1,1,1,1,1,1,1,0,0,0,0,0,0,0,0],"id":18,"left_children":[1,3,5,7,9,11,13,-1,-1,-1,-1,-1,-1,-1,-1],"loss_changes":[3.6452961E3,1.06866745E2,4.852881E1,3.345675E1,3.3242912E1,1.4495117E1,2.5340694E1,0E0,0E0,0E0,0E0,0E0,0E0,0E0,0E0],"parents":[2147483647,0,0,1,1,2,2,3,3,4,4,5,5,6,6],"right_children":[2,4,6,8,10,12,14,-1,-1,-1,-1,-1,-1,-1,-1],"split_conditions":[2.1810445E-1,1.9290164E-1,1.6111684E-1,5.4820275E-1,3.445799E-2,3.5391504E-1,2.6857676E-3,-4.7044395E-3,1.2668964E-2,2.6362807E-2,-1.1743387E-1,-1.3597426E-1,-3.452977E-2,3.139887E-2,-9.929519E-2],"split_indices":[65,257,327,72,299,189,209,0,0,0,0,0,0,0,0],"split_type":[0,0,0,0,0,0,0,0,0,0,0,0,0,0,0],"sum_hessian":[8.231091E3,4.656598E3,3.574492E3,4.540451E3,1.16147026E2,3.5157297E3,5.8762165E1,2.6213762E3,1.9190752E3,1.8829596E1,9.731744E1,3.500787E3,1.4942737E1,2.5496403E1,3.326576E1],"tree_param":{"num_deleted":"0","num_feature":"360","num_nodes":"15","size_leaf_vector":"0"}},{"base_weights":[-5.506651E-2,-2.689934E-1,-4.5248184E-2,-1.2057152E-1,-4.8666054E-1,-4.7249757E-2,8.1620824E-1,3.6770985E-1,-2.590089E-1,4.81128E-1,-5.6984246E-1,-8.775707E-1,-4.5095723E-2,1.2926035E0,9.700673E-2],"categories":[],"categories_nodes":[],"categories_segments":[],"categories_sizes":[],"default_left":[1,1,1,1,1,1,1,0,0,0,0,0,0,0,0],"id":19,"left_children":[1,3,5,7,9,11,13,-1,-1,-1,-1,-1,-1,-1,-1],"loss_changes":[1.9347754E1,1.3001768E1,1.5236191E1,1.643299E1,1.3442001E1,1.5689697E1,6.893697E0,0E0,0E0,0E0,0E0,0E0,0E0,0E0,0E0],"parents":[2147483647,0,0,1,1,2,2,3,3,4,4,5,5,6,6],"right_children":[2,4,6,8,10,12,14,-1,-1,-1,-1,-1,-1,-1,-1],"split_conditions":[4.8367674E-5,3.6547524E-1,9.8669904E-1,2.851767E-4,1.7037542E-3,1.1033959E-6,2.1004558E-1,3.6770985E-2,-2.5900891E-2,4.8112802E-2,-5.6984246E-2,-8.775707E-2,-4.5095724E-3,1.2926035E-1,9.700674E-3],"split_indices":[17,124,135,314,255,161,10,0,0,0,0,0,0,0,0],"split_type":[0,0,0,0,0,0,0,0,0,0,0,0,0,0,0],"sum_hessian":[9.216236E3,4.0326602E2,8.812971E3,2.4069554E2,1.6257048E2,8.793484E3,1.9486263E1,5.2801983E1,1.8789355E2,1.2488439E1,1.5008205E2,2.1701595E1,8.771782E3,1.124221E1,8.244054E0],"tree_param":{"num_deleted":"0","num_feature":"360","num_nodes":"15","size_leaf_vector":"0"}},{"base_weights":[-5.761399E-1,-1.3280302E0,2.3952965E-2,-1.3545814E0,-3.7602204E-1,4.604099E-2,-7.637404E-1,-7.064982E-1,-1.3593632E0,-1.105968E-1,-1.2830517E0,2.5548697E-1,2.4932139E-2,-1.1306218E0,-1.5684274E-1],"categories":[],"categories_nodes":[],"categories_segments":[],"categories_sizes":[],"default_left":[1,1,1,1,1,1,1,0,0,0,0,0,0,0,0],"id":20,"left_children":[1,3,5,7,9,11,13,-1,-1,-1,-1,-1,-1,-1,-1],"loss_changes":[3.7096794E3,9.17334E1,7.9605316E1,1.0040527E1,2.4029257E1,1.9665886E1,2.7611115E1,0E0,0E0,0E0,0E0,0E0,0E0,0E0,0E0],"parents":[2147483647,0,0,1,1,2,2,3,3,4,4,5,5,6,6],"right_children":[2,4,6,8,10,12,14,-1,-1,-1,-1,-1,-1,-1,-1],"split_conditions":[1.8361005E-1,1.9308257E-1,1.7304085E-1,4.1123454E-2,3.931855E-1,1.1891502E-4,1.8986177E-1,-7.0649825E-2,-1.3593632E-1,-1.105968E-2,-1.2830518E-1,2.5548697E-2,2.4932139E-3,-1.1306218E-1,-1.5684275E-2],"split_indices":[65,257,357,93,249,75,233,0,0,0,0,0,0,0,0],"split_type":[0,0,0,0,0,0,0,0,0,0,0,0,0,0,0],"sum_hessian":[8.220663E3,3.648295E3,4.5723677E3,3.5488948E3,9.9399994E1,4.4485654E3,1.2380245E2,2.7082952E1,3.5218118E3,7.776536E1,2.1634642E1,4.0627963E2,4.042286E3,7.6620766E1,4.718169E1],"tree_param":{"num_deleted":"0","num_feature":"360","num_nodes":"15","size_leaf_vector":"0"}},{"base_weights":[-5.380138E-1,3.5569053E-3,-1.2965425E0,2.2997176E-2,-1.0717591E0,-1.3163229E0,-4.4979143E-1,-4.9942085E-1,3.8840216E-2,7.0949583E-3,-1.2745693E0,-1.3182347E0,-1.03848875E-1,-8.2675195E-1,2.9508755E-1],"categories":[],"categories_nodes":[],"categories_segments":[],"categories_sizes":[],"default_left":[1,1,1,1,1,1,1,0,0,0,0,0,0,0,0],"id":21,"left_children":[1,3,5,7,9,11,13,-1,-1,-1,-1,-1,-1,-1,-1],"loss_changes":[3.2964182E3,9.791523E1,5.539453E1,3.8097054E1,1.8208122E1,7.434082E0,2.2095768E1,0E0,0E0,0E0,0E0,0E0,0E0,0E0,0E0],"parents":[2147483647,0,0,1,1,2,2,3,3,4,4,5,5,6,6],"right_children":[2,4,6,8,10,12,14,-1,-1,-1,-1,-1,-1,-1,-1],"split_conditions":[2.3494932E-1,1.23125754E-1,1.6878635E-1,6.459209E-2,1.2278454E-2,2.72932E-1,1.6432348E-1,-4.9942087E-2,3.8840217E-3,7.0949586E-4,-1.2745693E-1,-1.3182347E-1,-1.0384887E-2,-8.2675196E-2,2.9508755E-2],"split_indices":[65,185,357,315,68,264,327,0,0,0,0,0,0,0,0],"split_type":[0,0,0,0,0,0,0,0,0,0,0,0,0,0,0],"sum_hessian":[8.0234365E3,4.681766E3,3.3416702E3,4.5995903E3,8.217581E1,3.2648477E3,7.68226E1,1.3448476E2,4.4651055E3,1.3156184E1,6.901963E1,3.2596206E3,5.2269974E0,5.0935688E1,2.5886911E1],"tree_param":{"num_deleted":"0","num_feature":"360","num_nodes":"15","size_leaf_vector":"0"}},{"base_weights":[-4.2467516E-2,-1.2205044E-1,-1.8032832E-2,-2.7041587E-1,-7.000078E-2,-7.0262E-2,4.959848E-2,-4.4467723E-1,-1.2384454E-1,3.5155606E-2,-1.7930493E-1,2.0187064E-1,-8.391574E-2,4.9272785E-1,3.5786726E-2],"categories":[],"categories_nodes":[],"categories_segments":[],"categories_sizes":[],"default_left":[1,1,1,1,1,1,1,0,0,0,0,0,0,0,0],"id":22,"left_children":[1,3,5,7,9,11,13,-1,-1,-1,-1,-1,-1,-1,-1],"loss_changes":[1.7794485E1,1.658183E1,2.4741175E1,1.4195854E1,1.831342E1,1.4701052E1,1.8663282E1,0E0,0E0,0E0,0E0,0E0,0E0,0E0,0E0],"parents":[2147483647,0,0,1,1,2,2,3,3,4,4,5,5,6,6],"right_children":[2,4,6,8,10,12,14,-1,-1,-1,-1,-1,-1,-1,-1],"split_conditions":[2.6133223E-3,2.8870046E-1,1.1342516E-2,9.116845E-4,5.0735116E-1,2.8083578E-1,2.2011535E-4,-4.4467725E-2,-1.2384455E-2,3.5155606E-3,-1.7930493E-2,2.0187063E-2,-8.391574E-3,4.9272787E-2,3.5786727E-3],"split_indices":[53,73,192,188,183,253,189,0,0,0,0,0,0,0,0],"split_type":[0,0,0,0,0,0,0,0,0,0,0,0,0,0,0],"sum_hessian":[9.150924E3,2.148697E3,7.002227E3,5.569471E2,1.59175E3,3.9509868E3,3.0512402E3,2.5351021E2,3.0343686E2,8.1161334E2,7.801367E2,1.8810385E2,3.7628828E3,9.11804E1,2.9600598E3],"tree_param":{"num_deleted":"0","num_feature":"360","num_nodes":"15","size_leaf_vector":"0"}},{"base_weights":[-5.2594244E-1,-1.2781336E0,4.4542395E-2,-1.3003633E0,-1.8719406E-1,6.725328E-2,-5.4510826E-1,-1.3110272E0,-8.26961E-1,1.9019271E-1,-7.866568E-1,1.0783184E-2,1.2766789E-1,-1.1212564E0,-2.3378375E-1],"categories":[],"categories_nodes":[],"categories_segments":[],"categories_sizes":[],"default_left":[1,1,1,1,1,1,1,0,0,0,0,0,0,0,0],"id":23,"left_children":[1,3,5,7,9,11,13,-1,-1,-1,-1,-1,-1,-1,-1],"loss_changes":[3.4320225E3,8.34126E1,6.0957573E1,1.5981445E1,1.5998096E1,1.4946281E1,3.0020508E1,0E0,0E0,0E0,0E0,0E0,0E0,0E0,0E0],"parents":[2147483647,0,0,1,1,2,2,3,3,4,4,5,5,6,6],"right_children":[2,4,6,8,10,12,14,-1,-1,-1,-1,-1,-1,-1,-1],"split_conditions":[1.90128E-1,1.13025464E-1,1.1706069E-1,1.5044662E-1,1.6940904E-1,5.545002E-1,1.4240286E-1,-1.3110273E-1,-8.26961E-2,1.9019272E-2,-7.866568E-2,1.0783185E-3,1.2766789E-2,-1.12125635E-1,-2.3378376E-2],"split_indices":[65,185,228,206,342,157,281,0,0,0,0,0,0,0,0],"split_type":[0,0,0,0,0,0,0,0,0,0,0,0,0,0,0],"sum_hessian":[7.9967993E3,3.448573E3,4.5482266E3,3.379518E3,6.905493E1,4.3803975E3,1.678287E2,3.3033376E3,7.618049E1,4.279587E1,2.6259056E1,2.2647207E3,2.1156768E3,5.796152E1,1.0986719E2],"tree_param":{"num_deleted":"0","num_feature":"360","num_nodes":"15","size_leaf_vector":"0"}},{"base_weights":[-4.923148E-1,2.3307431E-2,-1.2479873E0,4.9019437E-2,-5.3482175E-1,-1.2644678E0,-2.6353195E-1,2.1541107E-1,1.6918406E-2,-2.4483162E-1,-9.980145E-1,-1.2731423E0,-6.225473E-1,1.2351201E-1,-1.0133818E0],"categories":[],"categories_nodes":[],"categories_segments":[],"categories_sizes":[],"default_left":[1,1,1,1,1,1,1,0,0,0,0,0,0,0,0],"id":24,"left_children":[1,3,5,7,9,11,13,-1,-1,-1,-1,-1,-1,-1,-1],"loss_changes":[3.0375557E3,6.653897E1,5.096582E1,2.366724E1,2.7183964E1,1.6521973E1,1.5601078E1,0E0,0E0,0E0,0E0,0E0,0E0,0E0,0E0],"parents":[2147483647,0,0,1,1,2,2,3,3,4,4,5,5,6,6],"right_children":[2,4,6,8,10,12,14,-1,-1,-1,-1,-1,-1,-1,-1],"split_conditions":[2.7543718E-1,1.801297E-1,2.5118554E-1,1.8738471E-3,1.0545111E-1,1.5988117E-1,2.8315336E-1,2.1541107E-2,1.6918406E-3,-2.4483163E-2,-9.980145E-2,-1.2731424E-1,-6.2254734E-2,1.2351201E-2,-1.01338185E-1],"split_indices":[251,56,231,284,359,327,56,0,0,0,0,0,0,0,0],"split_type":[0,0,0,0,0,0,0,0,0,0,0,0,0,0,0],"sum_hessian":[7.7946963E3,4.633835E3,3.1608613E3,4.4306357E3,2.0319922E2,3.1085376E3,5.232387E1,7.156167E2,3.715019E3,1.25903595E2,7.729562E1,3.0661208E3,4.241668E1,3.506166E1,1.726221E1],"tree_param":{"num_deleted":"0","num_feature":"360","num_nodes":"15","size_leaf_vector":"0"}},{"base_weights":[-3.7470575E-2,-1.6258664E-1,-1.7609103E-2,-2.0123494E-1,2.5318274E-1,-2.6486434E-2,3.110858E-1,-3.7711838E-1,-1.337335E-1,6.5636855E-1,-5.149486E-2,-1.9439472E-2,-2.9905212E-1,-2.9446363E-1,4.277582E-1],"categories":[],"categories_nodes":[],"categories_segments":[],"categories_sizes":[],"default_left":[1,1,1,1,1,1,1,0,0,0,0,0,0,0,0],"id":25,"left_children":[1,3,5,7,9,11,13,-1,-1,-1,-1,-1,-1,-1,-1],"loss_changes":[2.2757881E1,2.0212013E1,2.3076307E1,1.3585239E1,1.3196651E1,1.4781431E1,1.4819727E1,0E0,0E0,0E0,0E0,0E0,0E0,0E0,0E0],"parents":[2147483647,0,0,1,1,2,2,3,3,4,4,5,5,6,6],"right_children":[2,4,6,8,10,12,14,-1,-1,-1,-1,-1,-1,-1,-1],"split_conditions":[3.6034198E-4,4.2669386E-2,5.102289E-1,2.80963E-1,5.0632143E-1,9.2407924E-1,5.939237E-4,-3.771184E-2,-1.337335E-2,6.563686E-2,-5.149486E-3,-1.9439472E-3,-2.9905213E-2,-2.9446363E-2,4.277582E-2],"split_indices":[209,26,288,226,25,125,218,0,0,0,0,0,0,0,0],"split_type":[0,0,0,0,0,0,0,0,0,0,0,0,0,0,0],"sum_hessian":[9.158292E3,1.2536731E3,7.9046187E3,1.1475201E3,1.06153E2,7.6976416E3,2.0697707E2,3.169862E2,8.305339E2,4.5193394E1,6.0959602E1,7.5046855E3,1.9295619E2,3.319025E1,1.7378682E2],"tree_param":{"num_deleted":"0","num_feature":"360","num_nodes":"15","size_leaf_vector":"0"}},{"base_weights":[-4.8630857E-1,-1.242438E0,3.836598E-2,-1.2654645E0,-4.2756012E-1,5.1719178E-2,-9.014576E-1,-1.2687128E0,-3.3934924E-1,1.5034497E-1,-9.252408E-1,5.743387E-2,-6.1670005E-1,-1.1166356E0,6.74605E-1],"categories":[],"categories_nodes":[],"categories_segments":[],"categories_sizes":[],"default_left":[1,1,1,1,1,1,1,0,0,0,0,0,0,0,0],"id":26,"left_children":[1,3,5,7,9,11,13,-1,-1,-1,-1,-1,-1,-1,-1],"loss_changes":[3.0700469E3,5.8940918E1,5.739081E1,8.841797E0,2.5629135E1,1.72487E1,2.248074E1,0E0,0E0,0E0,0E0,0E0,0E0,0E0,0E0],"parents":[2147483647,0,0,1,1,2,2,3,3,4,4,5,5,6,6],"right_children":[2,4,6,8,10,12,14,-1,-1,-1,-1,-1,-1,-1,-1],"split_conditions":[2.2983299E-1,1.8344636E-1,4.1422892E-1,3.0338007E-1,6.733428E-2,5.175936E-1,3.0398756E-1,-1.2687127E-1,-3.3934925E-2,1.5034497E-2,-9.252408E-2,5.743387E-3,-6.1670005E-2,-1.1166356E-1,6.74605E-2],"split_indices":[251,359,357,77,147,255,233,0,0,0,0,0,0,0,0],"split_type":[0,0,0,0,0,0,0,0,0,0,0,0,0,0,0],"sum_hessian":[7.7374165E3,3.1690312E3,4.5683853E3,3.081405E3,8.762638E1,4.505318E3,6.306747E1,3.0702668E3,1.1138215E1,4.0868233E1,4.6758144E1,4.468032E3,3.7285652E1,5.5747795E1,7.3196764E0],"tree_param":{"num_deleted":"0","num_feature":"360","num_nodes":"15","size_leaf_vector":"0"}},{"base_weights":[-4.553385E-1,2.4947815E-2,-1.2135814E0,4.4567868E-2,-7.133354E-1,-1.2396759E0,-2.571454E-1,3.100798E-1,2.6083253E-2,-1.1004742E0,1.3655612E-1,-1.2417845E0,-5.481756E-2,-1.0180099E0,7.934414E-2],"categories":[],"categories_nodes":[],"categories_segments":[],"categories_sizes":[],"default_left":[1,1,1,1,1,1,1,0,0,0,0,0,0,0,0],"id":27,"left_children":[1,3,5,7,9,11,13,-1,-1,-1,-1,-1,-1,-1,-1],"loss_changes":[2.7497083E3,6.700338E1,7.2757324E1,2.2100546E1,3.9550385E1,7.052246E0,2.0312809E1,0E0,0E0,0E0,0E0,0E0,0E0,0E0,0E0],"parents":[2147483647,0,0,1,1,2,2,3,3,4,4,5,5,6,6],"right_children":[2,4,6,8,10,12,14,-1,-1,-1,-1,-1,-1,-1,-1],"split_conditions":[2.804594E-1,1.6326651E-1,2.3700988E-1,2.4161482E-4,3.001596E-1,1.2602128E-1,5.9106415E-3,3.100798E-2,2.6083253E-3,-1.1004742E-1,1.3655612E-2,-1.2417845E-1,-5.4817563E-3,-1.0180099E-1,7.934414E-3],"split_indices":[251,206,357,185,330,264,60,0,0,0,0,0,0,0,0],"split_type":[0,0,0,0,0,0,0,0,0,0,0,0,0,0,0],"sum_hessian":[7.5494575E3,4.6224634E3,2.926994E3,4.503716E3,1.187477E2,2.8489697E3,7.80243E1,2.921087E2,4.211607E3,8.1382065E1,3.7365643E1,2.8438606E3,5.1090617E0,2.3304092E1,5.4720207E1],"tree_param":{"num_deleted":"0","num_feature":"360","num_nodes":"15","size_leaf_vector":"0"}},{"base_weights":[-3.7739225E-2,-2.815422E-1,-2.974654E-2,-3.766387E-1,2.3420481E-1,-1.4058876E-1,-1.35129765E-2,-4.141925E-1,1.1375914E0,-6.824852E-1,5.2303916E-1,-1.6700476E-1,4.1649288E-1,-4.9088866E-2,3.8912315E-2],"categories":[],"categories_nodes":[],"categories_segments":[],"categories_sizes":[],"default_left":[1,1,1,1,1,1,1,0,0,0,0,0,0,0,0],"id":28,"left_children":[1,3,5,7,9,11,13,-1,-1,-1,-1,-1,-1,-1,-1],"loss_changes":[1.788036E1,1.4374437E1,1.5994136E1,1.4478188E1,1.252688E1,1.6780062E1,1.44661045E1,0E0,0E0,0E0,0E0,0E0,0E0,0E0,0E0],"parents":[2147483647,0,0,1,1,2,2,3,3,4,4,5,5,6,6],"right_children":[2,4,6,8,10,12,14,-1,-1,-1,-1,-1,-1,-1,-1],"split_conditions":[2.3186355E-4,7.675377E-1,3.1784397E-1,6.63321E-1,2.990351E-3,7.9422724E-1,3.499715E-2,-4.141925E-2,1.1375914E-1,-6.8248525E-2,5.2303918E-2,-1.6700476E-2,4.164929E-2,-4.9088867E-3,3.8912315E-3],"split_indices":[185,13,178,63,81,97,276,0,0,0,0,0,0,0,0],"split_type":[0,0,0,0,0,0,0,0,0,0,0,0,0,0,0],"sum_hessian":[9.17911E3,2.9028378E2,8.888826E3,2.4531995E2,4.4963825E1,1.1345432E3,7.754283E3,2.40092E2,5.2279553E0,1.0446446E1,3.451738E1,1.0838489E3,5.069432E1,4.619528E3,3.1347554E3],"tree_param":{"num_deleted":"0","num_feature":"360","num_nodes":"15","size_leaf_vector":"0"}},{"base_weights":[-4.596942E-1,-1.2060986E0,2.4687216E-2,-1.2308937E0,-2.9405346E-3,3.862316E-2,-9.1983753E-1,-1.2351371E0,-3.1042317E-1,2.905567E-1,-8.775033E-1,-2.8312004E-1,5.198904E-2,-1.1312776E0,-1.775433E-1],"categories":[],"categories_nodes":[],"categories_segments":[],"categories_sizes":[],"default_left":[1,1,1,1,1,1,1,0,0,0,0,0,0,0,0],"id":29,"left_children":[1,3,5,7,9,11,13,-1,-1,-1,-1,-1,-1,-1,-1],"loss_changes":[2.7157659E3,8.818701E1,6.0009216E1,1.0930176E1,1.5834213E1,1.932772E1,1.0203152E1,0E0,0E0,0E0,0E0,0E0,0E0,0E0,0E0],"parents":[2147483647,0,0,1,1,2,2,3,3,4,4,5,5,6,6],"right_children":[2,4,6,8,10,12,14,-1,-1,-1,-1,-1,-1,-1,-1],"split_conditions":[6.0394928E-2,1.5342698E-1,3.174055E-1,3.0801904E-1,1.5451452E-1,4.5127224E-2,1.1258356E-1,-1.2351371E-1,-3.1042317E-2,2.905567E-2,-8.775033E-2,-2.8312003E-2,5.1989043E-3,-1.1312776E-1,-1.775433E-2],"split_indices":[359,263,216,77,186,326,71,0,0,0,0,0,0,0,0],"split_type":[0,0,0,0,0,0,0,0,0,0,0,0,0,0,0],"sum_hessian":[7.510487E3,2.9552004E3,4.555286E3,2.8955056E3,5.9694805E1,4.489998E3,6.528835E1,2.881878E3,1.3627556E1,4.519533E1,1.4499474E1,1.7827933E2,4.3117188E3,5.040627E1,1.4882083E1],"tree_param":{"num_deleted":"0","num_feature":"360","num_nodes":"15","size_leaf_vector":"0"}},{"base_weights":[-4.2956296E-1,1.5467532E-2,-1.1874889E0,4.0360365E-2,-6.9176185E-1,-1.2084926E0,-4.7551173E-1,1.4123617E-1,4.282127E-3,-1.0042355E0,-6.1810464E-3,-1.2109891E0,-4.954222E-1,2.5430423E-1,-7.1323806E-1],"categories":[],"categories_nodes":[],"categories_segments":[],"categories_sizes":[],"default_left":[1,1,1,1,1,1,1,0,0,0,0,0,0,0,0],"id":30,"left_children":[1,3,5,7,9,11,13,-1,-1,-1,-1,-1,-1,-1,-1],"loss_changes":[2.4709248E3,8.130051E1,3.9952393E1,1.6232834E1,3.363138E1,4.084961E0,1.3940762E1,0E0,0E0,0E0,0E0,0E0,0E0,0E0,0E0],"parents":[2147483647,0,0,1,1,2,2,3,3,4,4,5,5,6,6],"right_children":[2,4,6,8,10,12,14,-1,-1,-1,-1,-1,-1,-1,-1],"split_conditions":[1.6683137E-1,1.5021577E-1,2.898329E-1,3.5926106E-4,4.3988347E-1,7.1603376E-1,8.957845E-2,1.4123618E-2,4.2821272E-4,-1.0042355E-1,-6.1810465E-4,-1.2109891E-1,-4.9542222E-2,2.5430424E-2,-7.1323805E-2],"split_indices":[233,239,357,209,357,19,317,0,0,0,0,0,0,0,0],"split_type":[0,0,0,0,0,0,0,0,0,0,0,0,0,0,0],"sum_hessian":[7.324541E3,4.615464E3,2.709077E3,4.459445E3,1.5601918E2,2.6307705E3,7.8306404E1,1.1739979E3,3.285447E3,1.0685299E2,4.9166195E1,2.6208962E3,9.874173E0,1.9222847E1,5.908356E1],"tree_param":{"num_deleted":"0","num_feature":"360","num_nodes":"15","size_leaf_vector":"0"}},{"base_weights":[-3.466992E-2,-5.892333E-2,3.6847137E-2,-4.2713318E-2,-1.8234675E-1,4.6519205E-2,-7.1285456E-1,-2.758315E-1,-3.1278167E-2,-3.2059333E-1,-7.612475E-2,-4.1713217E-1,5.99786E-2,3.6013943E-1,-9.562782E-1],"categories":[],"categories_nodes":[],"categories_segments":[],"categories_sizes":[],"default_left":[1,1,1,1,1,1,1,0,0,0,0,0,0,0,0],"id":31,"left_children":[1,3,5,7,9,11,13,-1,-1,-1,-1,-1,-1,-1,-1],"loss_changes":[1.5909731E1,1.3694857E1,1.6878712E1,1.613285E1,1.1646898E1,1.4343766E1,8.088999E0,0E0,0E0,0E0,0E0,0E0,0E0,0E0,0E0],"parents":[2147483647,0,0,1,1,2,2,3,3,4,4,5,5,6,6],"right_children":[2,4,6,8,10,12,14,-1,-1,-1,-1,-1,-1,-1,-1],"split_conditions":[5.027298E-1,7.432878E-1,5.8260286E-1,9.53872E-5,2.7364053E-4,5.1978088E-5,1.3737904E-4,-2.758315E-2,-3.1278168E-3,-3.2059334E-2,-7.612475E-3,-4.171322E-2,5.9978603E-3,3.6013942E-2,-9.562782E-2],"split_indices":[109,200,321,68,354,275,353,0,0,0,0,0,0,0,0],"split_type":[0,0,0,0,0,0,0,0,0,0,0,0,0,0,0],"sum_hessian":[9.170093E3,6.8479424E3,2.3221504E3,6.0541562E3,7.937863E2,2.2934993E3,2.8650993E1,2.8200708E2,5.772149E3,3.440245E2,4.4976178E2,6.385402E1,2.2296453E3,5.209299E0,2.3441696E1],"tree_param":{"num_deleted":"0","num_feature":"360","num_nodes":"15","size_leaf_vector":"0"}},{"base_weights":[-4.2234284E-1,-1.1706007E0,3.5922505E-2,-1.1998556E0,-4.1202277E-1,4.5138933E-2,-6.921425E-1,-1.2066665E0,-1.9454789E-1,-3.0617189E-2,-8.848128E-1,-2.2346224E-1,5.793075E-2,7.5985205E-1,-9.2353487E-1],"categories":[],"categories_nodes":[],"categories_segments":[],"categories_sizes":[],"default_left":[1,1,1,1,1,1,1,0,0,0,0,0,0,0,0],"id":32,"left_children":[1,3,5,7,9,11,13,-1,-1,-1,-1,-1,-1,-1,-1],"loss_changes":[2.5208904E3,6.14729E1,3.0631086E1,1.8170898E1,1.8945063E1,1.5488779E1,1.987501E1,0E0,0E0,0E0,0E0,0E0,0E0,0E0,0E0],"parents":[2147483647,0,0,1,1,2,2,3,3,4,4,5,5,6,6],"right_children":[2,4,6,8,10,12,14,-1,-1,-1,-1,-1,-1,-1,-1],"split_conditions":[2.51221E-1,1.4366217E-1,3.9777744E-1,2.3125279E-1,1.9781695E-1,2.7567878E-1,1.6891685E-3,-1.20666645E-1,-1.945479E-2,-3.061719E-3,-8.848128E-2,-2.2346225E-2,5.793075E-3,7.598521E-2,-9.2353486E-2],"split_indices":[251,359,357,221,285,196,90,0,0,0,0,0,0,0,0],"split_type":[0,0,0,0,0,0,0,0,0,0,0,0,0,0,0],"sum_hessian":[7.350543E3,2.7913154E3,4.5592275E3,2.6871045E3,1.0421102E2,4.5031606E3,5.606659E1,2.668823E3,1.8281485E1,5.826925E1,4.594177E1,2.0396008E2,4.2992007E3,7.3927875E0,4.8673805E1],"tree_param":{"num_deleted":"0","num_feature":"360","num_nodes":"15","size_leaf_vector":"0"}},{"base_weights":[-3.955993E-1,1.9922681E-2,-1.1573234E0,3.6340635E-2,-7.5417876E-1,-1.1850121E0,-5.6715965E-1,6.7387104E-2,-8.12862E-2,-1.0648204E0,2.0396562E-1,-1.1873624E0,-5.1084045E-2,-8.2035E-1,7.4338466E-2],"categories":[],"categories_nodes":[],"categories_segments":[],"categories_sizes":[],"default_left":[1,1,1,1,1,1,1,0,0,0,0,0,0,0,0],"id":33,"left_children":[1,3,5,7,9,11,13,-1,-1,-1,-1,-1,-1,-1,-1],"loss_changes":[2.257333E3,5.8687042E1,4.046216E1,1.6514376E1,2.8762032E1,6.3449707E0,1.8695225E1,0E0,0E0,0E0,0E0,0E0,0E0,0E0,0E0],"parents":[2147483647,0,0,1,1,2,2,3,3,4,4,5,5,6,6],"right_children":[2,4,6,8,10,12,14,-1,-1,-1,-1,-1,-1,-1,-1],"split_conditions":[1.5920156E-1,2.0918296E-1,1.4547169E-1,5.676372E-3,3.112225E-1,3.075506E-1,2.546413E-1,6.7387107E-3,-8.12862E-3,-1.06482044E-1,2.0396562E-2,-1.18736245E-1,-5.1084044E-3,-8.2035E-2,7.4338466E-3],"split_indices":[233,257,249,146,282,231,243,0,0,0,0,0,0,0,0],"split_type":[0,0,0,0,0,0,0,0,0,0,0,0,0,0,0],"sum_hessian":[7.1308057E3,4.614539E3,2.5162666E3,4.519635E3,9.4904106E1,2.4025386E3,1.1372794E2,3.5761672E3,9.434677E2,7.1584305E1,2.3319801E1,2.3975222E3,5.016445E0,8.134386E1,3.2384087E1],"tree_param":{"num_deleted":"0","num_feature":"360","num_nodes":"15","size_leaf_vector":"0"}},{"base_weights":[-2.8764108E-2,-7.7344775E-2,1.3494431E-2,-1.1754902E-1,4.070609E-2,4.1289825E-2,-1.2711082E-1,1.2689001E-2,-1.6465968E-1,2.6858239E-2,8.848048E-1,-7.099255E-3,1.21525E-1,1.4898041E-1,-2.0069394E-1],"categories":[],"categories_nodes":[],"categories_segments":[],"categories_sizes":[],"default_left":[1,1,1,1,1,1,1,0,0,0,0,0,0,0,0],"id":34,"left_children":[1,3,5,7,9,11,13,-1,-1,-1,-1,-1,-1,-1,-1],"loss_changes":[1.8837364E1,2.0263662E1,1.9185663E1,1.953999E1,1.2660389E1,1.5913184E1,1.6491608E1,0E0,0E0,0E0,0E0,0E0,0E0,0E0,0E0],"parents":[2147483647,0,0,1,1,2,2,3,3,4,4,5,5,6,6],"right_children":[2,4,6,8,10,12,14,-1,-1,-1,-1,-1,-1,-1,-1],"split_conditions":[4.950101E-1,5.019855E-1,5.6472325E-1,3.8235E-1,5.730033E-1,5.1643455E-1,1.8746136E-1,1.2689001E-3,-1.6465968E-2,2.685824E-3,8.848048E-2,-7.099255E-4,1.21524995E-2,1.4898041E-2,-2.0069394E-2],"split_indices":[100,109,71,307,323,358,215,0,0,0,0,0,0,0,0],"split_type":[0,0,0,0,0,0,0,0,0,0,0,0,0,0,0],"sum_hessian":[9.174254E3,4.267491E3,4.906763E3,3.1833508E3,1.0841401E3,4.0974663E3,8.092968E2,8.458151E2,2.3375356E3,1.0676566E3,1.648361E1,2.5565479E3,1.5409186E3,1.7008737E2,6.392095E2],"tree_param":{"num_deleted":"0","num_feature":"360","num_nodes":"15","size_leaf_vector":"0"}},{"base_weights":[-4.020297E-1,9.290158E-3,-1.143035E0,-8.7827075E-1,2.6320703E-2,-1.1653727E0,-1.7514735E-1,-1.1071348E0,-9.4483815E-2,1.01066515E-1,-1.5762229E-2,-1.1784999E0,-6.0599667E-1,1.0698581E0,-4.0143222E-1],"categories":[],"categories_nodes":[],"categories_segments":[],"categories_sizes":[],"default_left":[1,1,1,1,1,1,1,0,0,0,0,0,0,0,0],"id":35,"left_children":[1,3,5,7,9,11,13,-1,-1,-1,-1,-1,-1,-1,-1],"loss_changes":[2.1664524E3,6.9128716E1,5.465039E1,1.5340294E1,1.4114584E1,1.7495117E1,1.6885393E1,0E0,0E0,0E0,0E0,0E0,0E0,0E0,0E0],"parents":[2147483647,0,0,1,1,2,2,3,3,4,4,5,5,6,6],"right_children":[2,4,6,8,10,12,14,-1,-1,-1,-1,-1,-1,-1,-1],"split_conditions":[1.7312133E-1,3.5722028E-3,2.0697534E-1,2.0243722E-1,4.413007E-1,1.7156145E-1,2.0280606E-3,-1.1071348E-1,-9.448382E-3,1.0106652E-2,-1.5762228E-3,-1.1785E-1,-6.0599666E-2,1.0698581E-1,-4.014322E-2],"split_indices":[357,326,257,320,358,233,195,0,0,0,0,0,0,0,0],"split_type":[0,0,0,0,0,0,0,0,0,0,0,0,0,0,0],"sum_hessian":[7.106977E3,4.570793E3,2.5361843E3,8.510124E1,4.4856914E3,2.4787732E3,5.7411095E1,6.554864E1,1.9552603E1,1.615288E3,2.8704036E3,2.4208545E3,5.7918663E1,8.256487E0,4.9154606E1],"tree_param":{"num_deleted":"0","num_feature":"360","num_nodes":"15","size_leaf_vector":"0"}},{"base_weights":[-3.680441E-1,1.323133E-2,-1.1360143E0,3.1552285E-2,-6.4403933E-1,-1.1599069E0,-2.1156263E-1,-2.846001E-2,1.0287029E-1,-1.0887676E0,-1.3209234E-1,-1.1627975E0,-5.330459E-2,-4.4144663E-1,7.336948E-1],"categories":[],"categories_nodes":[],"categories_segments":[],"categories_sizes":[],"default_left":[1,1,1,1,1,1,1,0,0,0,0,0,0,0,0],"id":36,"left_children":[1,3,5,7,9,11,13,-1,-1,-1,-1,-1,-1,-1,-1],"loss_changes":[2.0369834E3,5.6011204E1,5.0731934E1,1.9367855E1,2.8575195E1,7.133545E0,1.3224941E1,0E0,0E0,0E0,0E0,0E0,0E0,0E0,0E0],"parents":[2147483647,0,0,1,1,2,2,3,3,4,4,5,5,6,6],"right_children":[2,4,6,8,10,12,14,-1,-1,-1,-1,-1,-1,-1,-1],"split_conditions":[2.3612913E-1,2.8742926E-2,2.8427365E-1,5.270701E-1,1.9130598E-1,9.365229E-1,3.9491862E-1,-2.8460012E-3,1.028703E-2,-1.08876765E-1,-1.3209234E-2,-1.1627974E-1,-5.330459E-3,-4.4144664E-2,7.336948E-2],"split_indices":[65,185,357,72,285,225,243,0,0,0,0,0,0,0,0],"split_type":[0,0,0,0,0,0,0,0,0,0,0,0,0,0,0],"sum_hessian":[6.955665E3,4.6486997E3,2.3069648E3,4.5235605E3,1.2513907E2,2.248595E3,5.8369904E1,2.4568145E3,2.0667463E3,6.63629E1,5.877617E1,2.2426863E3,5.908775E0,4.7380165E1,1.0989738E1],"tree_param":{"num_deleted":"0","num_feature":"360","num_nodes":"15","size_leaf_vector":"0"}},{"base_weights":[-3.421543E-2,-1.3665216E-1,-1.2123229E-2,-2.076477E-1,4.7319546E-2,-9.471584E-1,-9.584397E-3,3.317082E-1,-2.3015127E-1,1.2549037E-1,-3.3836335E-1,-1.4046165E0,1.950641E-1,-3.3651046E-2,6.854486E-2],"categories":[],"categories_nodes":[],"categories_segments":[],"categories_sizes":[],"default_left":[1,1,1,1,1,1,1,0,0,0,0,0,0,0,0],"id":37,"left_children":[1,3,5,7,9,11,13,-1,-1,-1,-1,-1,-1,-1,-1],"loss_changes":[2.0703312E1,2.1208305E1,1.7859522E1,1.429258E1,1.3692261E1,1.091888E1,1.4119188E1,0E0,0E0,0E0,0E0,0E0,0E0,0E0,0E0],"parents":[2147483647,0,0,1,1,2,2,3,3,4,4,5,5,6,6],"right_children":[2,4,6,8,10,12,14,-1,-1,-1,-1,-1,-1,-1,-1],"split_conditions":[3.5171697E-1,5.055899E-1,3.778753E-6,1.660434E-6,6.763364E-1,1.9213341E-3,7.199806E-1,3.317082E-2,-2.3015127E-2,1.2549037E-2,-3.3836335E-2,-1.4046165E-1,1.950641E-2,-3.3651048E-3,6.8544857E-3],"split_indices":[358,106,206,300,304,254,100,0,0,0,0,0,0,0,0],"split_type":[0,0,0,0,0,0,0,0,0,0,0,0,0,0,0],"sum_hessian":[9.148132E3,1.6220154E3,7.526116E3,1.1702728E3,4.517425E2,1.9372257E1,7.5067437E3,4.6321377E1,1.1239514E3,3.7617365E2,7.556884E1,1.3668375E1,5.7038827E0,5.7393765E3,1.7673673E3],"tree_param":{"num_deleted":"0","num_feature":"360","num_nodes":"15","size_leaf_vector":"0"}},{"base_weights":[-3.6525828E-1,-1.1319311E0,1.5758367E-2,-1.153935E0,-2.617078E-1,3.203973E-2,-7.4272525E-1,-1.1630828E0,-8.105668E-1,1.0824504E0,-4.9686557E-1,-2.2187757E-1,4.5056276E-2,1.2188808E0,-8.65098E-1],"categories":[],"categories_nodes":[],"categories_segments":[],"categories_sizes":[],"default_left":[1,1,1,1,1,1,1,0,0,0,0,0,0,0,0],"id":38,"left_children":[1,3,5,7,9,11,13,-1,-1,-1,-1,-1,-1,-1,-1],"loss_changes":[2.0290088E3,4.3853027E1,5.7335205E1,6.1208496E0,1.8922173E1,1.5029653E1,2.4475452E1,0E0,0E0,0E0,0E0,0E0,0E0,0E0,0E0],"parents":[2147483647,0,0,1,1,2,2,3,3,4,4,5,5,6,6],"right_children":[2,4,6,8,10,12,14,-1,-1,-1,-1,-1,-1,-1,-1],"split_conditions":[8.571017E-2,3.1473473E-2,3.796269E-1,1.6103388E-1,2.0846778E-3,1.14219725E-1,4.7953438E-2,-1.1630829E-1,-8.105668E-2,1.0824504E-1,-4.968656E-2,-2.2187758E-2,4.505628E-3,1.2188808E-1,-8.65098E-2],"split_indices":[233,185,357,320,99,176,294,0,0,0,0,0,0,0,0],"split_type":[0,0,0,0,0,0,0,0,0,0,0,0,0,0,0],"sum_hessian":[6.9448613E3,2.3049412E3,4.6399204E3,2.2477793E3,5.716187E1,4.543352E3,9.656837E1,2.187124E3,6.0655415E1,7.974822E0,4.918705E1,2.2076585E2,4.322586E3,5.1444035E0,9.1423965E1],"tree_param":{"num_deleted":"0","num_feature":"360","num_nodes":"15","size_leaf_vector":"0"}},{"base_weights":[-3.5911256E-1,-1.24895945E-2,-1.116501E0,2.5433376E-3,-6.369623E-1,-1.1443026E0,-4.3951622E-1,1.6663219E-1,-2.1146296E-2,-2.6548693E-1,-1.033471E0,-4.5852312E-1,-1.146585E0,1.01824306E-1,-9.235217E-1],"categories":[],"categories_nodes":[],"categories_segments":[],"categories_sizes":[],"default_left":[1,1,1,1,1,1,1,0,0,0,0,0,0,0,0],"id":39,"left_children":[1,3,5,7,9,11,13,-1,-1,-1,-1,-1,-1,-1,-1],"loss_changes":[1.7726528E3,4.3497505E1,3.939795E1,1.759463E1,1.5768753E1,2.6604004E0,2.243064E1,0E0,0E0,0E0,0E0,0E0,0E0,0E0,0E0],"parents":[2147483647,0,0,1,1,2,2,3,3,4,4,5,5,6,6],"right_children":[2,4,6,8,10,12,14,-1,-1,-1,-1,-1,-1,-1,-1],"split_conditions":[3.0819115E-1,1.8538299E-1,2.7301872E-1,5.802463E-4,1.5276968E-1,1.6812725E-2,1.4569077E-1,1.666322E-2,-2.1146296E-3,-2.6548693E-2,-1.033471E-1,-4.5852315E-2,-1.146585E-1,1.0182431E-2,-9.2352174E-2],"split_indices":[251,221,282,173,239,221,233,0,0,0,0,0,0,0,0],"split_type":[0,0,0,0,0,0,0,0,0,0,0,0,0,0,0],"sum_hessian":[6.75129E3,4.632306E3,2.118984E3,4.5243867E3,1.0791964E2,2.0347334E3,8.4250374E1,5.700233E2,3.9543633E3,5.6580692E1,5.1338947E1,7.418972E0,2.0273145E3,4.0142376E1,4.4107998E1],"tree_param":{"num_deleted":"0","num_feature":"360","num_nodes":"15","size_leaf_vector":"0"}},{"base_weights":[-1.5199357E-2,-7.776135E-2,1.4184434E-2,-1.3987E-1,-4.8307125E-3,-9.603088E-2,4.1675664E-2,4.0963656E-1,-1.5700923E-1,1.2835033E-1,-9.2932776E-2,-8.314605E-2,-1.0251181E0,-3.0244097E-1,4.9712114E-2],"categories":[],"categories_nodes":[],"categories_segments":[],"categories_sizes":[],"default_left":[1,1,1,1,1,1,1,0,0,0,0,0,0,0,0],"id":40,"left_children":[1,3,5,7,9,11,13,-1,-1,-1,-1,-1,-1,-1,-1],"loss_changes":[1.684947E1,1.3267166E1,1.8901886E1,1.4962812E1,1.5831417E1,1.4824071E1,1.3821895E1,0E0,0E0,0E0,0E0,0E0,0E0,0E0,0E0],"parents":[2147483647,0,0,1,1,2,2,3,3,4,4,5,5,6,6],"right_children":[2,4,6,8,10,12,14,-1,-1,-1,-1,-1,-1,-1,-1],"split_conditions":[3.95025E-1,5.052371E-1,5.6517206E-4,3.100177E-2,5.1204455E-1,9.292011E-1,2.4594663E-4,4.0963657E-2,-1.5700923E-2,1.2835033E-2,-9.293278E-3,-8.314605E-3,-1.02511816E-1,-3.0244097E-2,4.9712113E-3],"split_indices":[73,241,195,85,217,71,87,0,0,0,0,0,0,0,0],"split_type":[0,0,0,0,0,0,0,0,0,0,0,0,0,0,0],"sum_hessian":[9.1641455E3,2.9281272E3,6.2360186E3,1.5808973E3,1.3472299E3,1.2444382E3,4.9915806E3,4.7124424E1,1.533773E3,5.3620667E2,8.110232E2,1.2284906E3,1.5947546E1,1.1307632E2,4.878504E3],"tree_param":{"num_deleted":"0","num_feature":"360","num_nodes":"15","size_leaf_vector":"0"}},{"base_weights":[-3.3374545E-1,-1.0963011E0,2.8379446E-2,-1.125555E0,-3.0235827E-1,4.061144E-2,-5.118929E-1,-4.564949E-2,-1.1320657E0,-7.695048E-1,1.7235728E-1,8.683121E-2,-5.7462644E-2,-6.2316614E-1,6.1763674E-1],"categories":[],"categories_nodes":[],"categories_segments":[],"categories_sizes":[],"default_left":[1,1,1,1,1,1,1,0,0,0,0,0,0,0,0],"id":41,"left_children":[1,3,5,7,9,11,13,-1,-1,-1,-1,-1,-1,-1,-1],"loss_changes":[1.8744575E3,5.0422607E1,3.0442438E1,1.4766357E1,1.7660099E1,2.0413969E1,1.3203346E1,0E0,0E0,0E0,0E0,0E0,0E0,0E0,0E0],"parents":[2147483647,0,0,1,1,2,2,3,3,4,4,5,5,6,6],"right_children":[2,4,6,8,10,12,14,-1,-1,-1,-1,-1,-1,-1,-1],"split_conditions":[2.1640281E-1,1.831404E-1,2.9637945E-1,7.96321E-2,1.7008314E-1,5.517609E-1,4.2737675E-1,-4.5649493E-3,-1.13206565E-1,-7.695048E-2,1.7235728E-2,8.683122E-3,-5.7462645E-3,-6.2316615E-2,6.1763674E-2],"split_indices":[251,359,75,258,290,313,218,0,0,0,0,0,0,0,0],"split_type":[0,0,0,0,0,0,0,0,0,0,0,0,0,0,0],"sum_hessian":[6.7869478E3,2.1846104E3,4.6023374E3,2.106573E3,7.80374E1,4.50135E3,1.0098762E2,1.2672118E1,2.093901E3,3.901928E1,3.901812E1,3.059569E3,1.4417809E3,9.23393E1,8.6483135E0],"tree_param":{"num_deleted":"0","num_feature":"360","num_nodes":"15","size_leaf_vector":"0"}},{"base_weights":[-3.1416848E-1,1.4447149E-2,-1.0931712E0,2.9982306E-2,-7.733802E-1,-1.1225725E0,-2.107994E-1,4.6967888E-1,2.0457763E-2,-9.648984E-1,1.13663726E-1,-1.1277555E0,1.1296299E-3,-5.035729E-1,7.237263E-1],"categories":[],"categories_nodes":[],"categories_segments":[],"categories_sizes":[],"default_left":[1,1,1,1,1,1,1,0,0,0,0,0,0,0,0],"id":42,"left_children":[1,3,5,7,9,11,13,-1,-1,-1,-1,-1,-1,-1,-1],"loss_changes":[1.686211E3,5.6734375E1,5.0462402E1,1.902442E1,1.5338345E1,1.1014648E1,1.7943165E1,0E0,0E0,0E0,0E0,0E0,0E0,0E0,0E0],"parents":[2147483647,0,0,1,1,2,2,3,3,4,4,5,5,6,6],"right_children":[2,4,6,8,10,12,14,-1,-1,-1,-1,-1,-1,-1,-1],"split_conditions":[2.369144E-1,2.0700836E-1,1.9518474E-1,1.6239204E-4,3.5751203E-1,4.5436108E-1,3.5688463E-1,4.696789E-2,2.0457765E-3,-9.648984E-2,1.1366373E-2,-1.1277556E-1,1.1296299E-4,-5.035729E-2,7.237263E-2],"split_indices":[65,257,357,44,159,204,243,0,0,0,0,0,0,0,0],"split_type":[0,0,0,0,0,0,0,0,0,0,0,0,0,0,0],"sum_hessian":[6.585894E3,4.632637E3,1.9532567E3,4.543996E3,8.864105E1,1.890008E3,6.3248684E1,9.531904E1,4.4486772E3,7.282905E1,1.5812001E1,1.881327E3,8.680994E0,4.8511784E1,1.4736898E1],"tree_param":{"num_deleted":"0","num_feature":"360","num_nodes":"15","size_leaf_vector":"0"}},{"base_weights":[-1.7536724E-2,-1.1399678E-2,-2.8200543E-1,-1.5802304E-1,-3.1004593E-4,-5.2673113E-1,9.841776E-2,-2.6440275E-1,7.35457E-2,5.37514E-3,-2.8181052E-1,-8.7538165E-1,-2.2645012E-1,3.226455E-1,-4.9418607E-1],"categories":[],"categories_nodes":[],"categories_segments":[],"categories_sizes":[],"default_left":[1,1,1,1,1,1,1,0,0,0,0,0,0,0,0],"id":43,"left_children":[1,3,5,7,9,11,13,-1,-1,-1,-1,-1,-1,-1,-1],"loss_changes":[1.4892286E1,1.4585728E1,1.9425087E1,1.5557486E1,1.3349659E1,1.3075626E1,1.1095854E1,0E0,0E0,0E0,0E0,0E0,0E0,0E0,0E0],"parents":[2147483647,0,0,1,1,2,2,3,3,4,4,5,5,6,6],"right_children":[2,4,6,8,10,12,14,-1,-1,-1,-1,-1,-1,-1,-1],"split_conditions":[9.367912E-1,5.1773037E-4,5.3936696E-1,2.929684E-4,7.960063E-1,6.8020466E-4,5.4711926E-1,-2.6440276E-2,7.35457E-3,5.37514E-4,-2.8181052E-2,-8.753817E-2,-2.2645012E-2,3.226455E-2,-4.941861E-2],"split_indices":[192,99,196,135,157,209,19,0,0,0,0,0,0,0,0],"split_type":[0,0,0,0,0,0,0,0,0,0,0,0,0,0,0],"sum_hessian":[9.176439E3,8.969347E3,2.0709224E2,6.297504E2,8.339597E3,1.25788246E2,8.130399E1,4.3141986E2,1.9833052E2,8.175466E3,1.6413087E2,5.731995E1,6.846829E1,5.93158E1,2.1988195E1],"tree_param":{"num_deleted":"0","num_feature":"360","num_nodes":"15","size_leaf_vector":"0"}},{"base_weights":[-3.29013E-1,-1.0821604E0,6.728518E-4,-1.1120808E0,-1.8758604E-1,1.5279394E-2,-4.7924247E-1,8.01623E-2,-1.1195507E0,-5.192453E-1,7.250272E-1,4.1811196E-3,3.0064118E-1,4.0371858E-2,-8.8517874E-1],"categories":[],"categories_nodes":[],"categories_segments":[],"categories_sizes":[],"default_left":[1,1,1,1,1,1,1,0,0,0,0,0,0,0,0],"id":44,"left_children":[1,3,5,7,9,11,13,-1,-1,-1,-1,-1,-1,-1,-1],"loss_changes":[1.6388857E3,5.3580322E1,3.219526E1,1.7406006E1,2.0426197E1,1.4114555E1,2.8649893E1,0E0,0E0,0E0,0E0,0E0,0E0,0E0,0E0],"parents":[2147483647,0,0,1,1,2,2,3,3,4,4,5,5,6,6],"right_children":[2,4,6,8,10,12,14,-1,-1,-1,-1,-1,-1,-1,-1],"split_conditions":[1.6302222E-1,1.9525245E-1,1.1809485E-1,5.131626E-2,4.8807305E-1,7.9618657E-1,4.3079997E-3,8.016231E-3,-1.1195507E-1,-5.1924534E-2,7.2502725E-2,4.1811197E-4,3.0064119E-2,4.037186E-3,-8.8517874E-2],"split_indices":[65,206,273,258,125,157,249,0,0,0,0,0,0,0,0],"split_type":[0,0,0,0,0,0,0,0,0,0,0,0,0,0,0],"sum_hessian":[6.599368E3,2.008588E3,4.5907803E3,1.9433467E3,6.524142E1,4.4561235E3,1.346569E2,1.2039545E1,1.9313071E3,4.816754E1,1.7073874E1,4.290281E3,1.658427E2,5.9454006E1,7.52029E1],"tree_param":{"num_deleted":"0","num_feature":"360","num_nodes":"15","size_leaf_vector":"0"}},{"base_weights":[-3.0787903E-1,-6.116607E-3,-1.0793271E0,1.3307623E-2,-5.489581E-1,-1.1089197E0,-4.1246483E-1,2.1542352E-2,-4.6923032E-1,-9.9366707E-1,-1.8610507E-1,-1.1116577E0,-1.5752651E-1,-7.488273E-1,3.468623E-1],"categories":[],"categories_nodes":[],"categories_segments":[],"categories_sizes":[],"default_left":[1,1,1,1,1,1,1,0,0,0,0,0,0,0,0],"id":45,"left_children":[1,3,5,7,9,11,13,-1,-1,-1,-1,-1,-1,-1,-1],"loss_changes":[1.495808E3,4.871966E1,3.519629E1,1.7736877E1,2.5572086E1,4.329834E0,2.0273441E1,0E0,0E0,0E0,0E0,0E0,0E0,0E0,0E0],"parents":[2147483647,0,0,1,1,2,2,3,3,4,4,5,5,6,6],"right_children":[2,4,6,8,10,12,14,-1,-1,-1,-1,-1,-1,-1,-1],"split_conditions":[1.7801696E-1,2.0156257E-1,1.11677E-2,6.226115E-1,1.9878289E-1,4.1931567E-1,1.17744274E-1,2.1542353E-3,-4.6923034E-2,-9.936671E-2,-1.8610507E-2,-1.1116578E-1,-1.575265E-2,-7.488273E-2,3.468623E-2],"split_indices":[233,95,72,89,285,342,201,0,0,0,0,0,0,0,0],"split_type":[0,0,0,0,0,0,0,0,0,0,0,0,0,0,0],"sum_hessian":[6.424485E3,4.61879E3,1.8056948E3,4.46017E3,1.5862056E2,1.7283354E3,7.735939E1,4.3862715E3,7.389836E1,7.049012E1,8.813044E1,1.7232078E3,5.1276183E0,5.3620644E1,2.3738743E1],"tree_param":{"num_deleted":"0","num_feature":"360","num_nodes":"15","size_leaf_vector":"0"}},{"base_weights":[-1.6243128E-2,-8.800192E-2,9.302625E-3,-9.6844815E-2,7.0750666E-1,-1.5516353E-2,1.0227575E-1,7.89045E-1,-1.0331302E-1,-1.2057938E-1,1.0662289E0,-3.2862235E-2,1.4421949E-1,7.781221E-2,6.5743303E-1],"categories":[],"categories_nodes":[],"categories_segments":[],"categories_sizes":[],"default_left":[1,1,1,1,1,1,1,0,0,0,0,0,0,0,0],"id":46,"left_children":[1,3,5,7,9,11,13,-1,-1,-1,-1,-1,-1,-1,-1],"loss_changes":[1.6856762E1,1.7051014E1,1.5651085E1,1.3767771E1,8.048292E0,1.4839125E1,1.93578E1,0E0,0E0,0E0,0E0,0E0,0E0,0E0,0E0],"parents":[2147483647,0,0,1,1,2,2,3,3,4,4,5,5,6,6],"right_children":[2,4,6,8,10,12,14,-1,-1,-1,-1,-1,-1,-1,-1],"split_conditions":[3.6149478E-1,9.9751407E-1,5.608293E-1,1.7726565E-5,1.2493136E-3,8.6735344E-1,8.7912536E-1,7.89045E-2,-1.0331302E-2,-1.2057938E-2,1.0662289E-1,-3.2862236E-3,1.4421949E-2,7.781221E-3,6.5743305E-2],"split_indices":[79,193,358,15,197,199,352,0,0,0,0,0,0,0,0],"split_type":[0,0,0,0,0,0,0,0,0,0,0,0,0,0,0],"sum_hessian":[9.194158E3,2.4131375E3,6.781021E3,2.3874766E3,2.5661005E1,5.3529067E3,1.428114E3,1.6428509E1,2.371048E3,7.9569E0,1.7704105E1,4.829284E3,5.2362274E2,1.3689309E3,5.9183086E1],"tree_param":{"num_deleted":"0","num_feature":"360","num_nodes":"15","size_leaf_vector":"0"}},{"base_weights":[-2.9505235E-1,1.0248207E-2,-1.0707871E0,2.4722563E-2,-5.854498E-1,-1.1023569E0,-3.0446318E-1,2.8444178E-2,-1.1501638E0,-9.285184E-1,-6.1823823E-2,-1.1063954E0,-2.0464319E-1,-1.1116474E0,-4.0326924E-3],"categories":[],"categories_nodes":[],"categories_segments":[],"categories_sizes":[],"default_left":[1,1,1,1,1,1,1,0,0,0,0,0,0,0,0],"id":47,"left_children":[1,3,5,7,9,11,13,-1,-1,-1,-1,-1,-1,-1,-1],"loss_changes":[1.5165522E3,3.9642807E1,4.3415283E1,1.965611E1,1.953513E1,6.069092E0,1.7682497E1,0E0,0E0,0E0,0E0,0E0,0E0,0E0,0E0],"parents":[2147483647,0,0,1,1,2,2,3,3,4,4,5,5,6,6],"right_children":[2,4,6,8,10,12,14,-1,-1,-1,-1,-1,-1,-1,-1],"split_conditions":[2.2600994E-1,2.0159268E-1,1.6328189E-1,6.7922294E-1,2.0040497E-1,2.2732916E-1,5.3289402E-2,2.844418E-3,-1.1501638E-1,-9.285184E-2,-6.1823823E-3,-1.10639535E-1,-2.046432E-2,-1.1116474E-1,-4.0326925E-4],"split_indices":[216,219,359,96,278,260,203,0,0,0,0,0,0,0,0],"split_type":[0,0,0,0,0,0,0,0,0,0,0,0,0,0,0],"sum_hessian":[6.402441E3,4.595004E3,1.8074371E3,4.486938E3,1.08065765E2,1.735502E3,7.193517E1,4.4737427E3,1.3195409E1,6.482232E1,4.3243446E1,1.7274983E3,8.003714E0,1.8779367E1,5.3155804E1],"tree_param":{"num_deleted":"0","num_feature":"360","num_nodes":"15","size_leaf_vector":"0"}},{"base_weights":[-2.669139E-1,1.6207367E-2,-1.0602064E0,2.6814729E-2,-6.6818583E-1,-1.0942473E0,-2.3302583E-1,7.3570744E-3,1.9335717E-1,2.5517127E-1,-9.803204E-1,5.646796E-2,-1.0982925E0,1.6824257E-1,-8.303983E-1],"categories":[],"categories_nodes":[],"categories_segments":[],"categories_sizes":[],"default_left":[1,1,1,1,1,1,1,0,0,0,0,0,0,0,0],"id":48,"left_children":[1,3,5,7,9,11,13,-1,-1,-1,-1,-1,-1,-1,-1],"loss_changes":[1.4143789E3,3.3716686E1,4.63844E1,1.4814483E1,2.068028E1,7.4659424E0,1.613772E1,0E0,0E0,0E0,0E0,0E0,0E0,0E0,0E0],"parents":[2147483647,0,0,1,1,2,2,3,3,4,4,5,5,6,6],"right_children":[2,4,6,8,10,12,14,-1,-1,-1,-1,-1,-1,-1,-1],"split_conditions":[2.3687756E-1,2.2403145E-1,1.5636575E-1,5.739337E-1,4.7326706E-2,1.7807592E-3,3.0598116E-1,7.3570746E-4,1.9335717E-2,2.5517127E-2,-9.803204E-2,5.6467964E-3,-1.0982925E-1,1.6824258E-2,-8.3039835E-2],"split_indices":[65,257,357,216,299,176,89,0,0,0,0,0,0,0,0],"split_type":[0,0,0,0,0,0,0,0,0,0,0,0,0,0,0],"sum_hessian":[6.2963037E3,4.6409546E3,1.655349E3,4.571069E3,6.988586E1,1.589609E3,6.5739944E1,4.0938198E3,4.772491E2,1.7702066E1,5.2183792E1,5.523047E0,1.5840859E3,3.9754395E1,2.5985552E1],"tree_param":{"num_deleted":"0","num_feature":"360","num_nodes":"15","size_leaf_vector":"0"}},{"base_weights":[-2.3550516E-2,2.5004533E-1,-2.9208355E-2,3.4858182E-1,-4.3416768E-1,-1.9240448E-2,-1.933571E-1,1.4057262E-1,6.625095E-1,3.5430098E-1,-9.0963894E-1,1.9448692E-1,-2.6375014E-2,-2.2038564E-1,9.158116E-1],"categories":[],"categories_nodes":[],"categories_segments":[],"categories_sizes":[],"default_left":[1,1,1,1,1,1,1,0,0,0,0,0,0,0,0],"id":49,"left_children":[1,3,5,7,9,11,13,-1,-1,-1,-1,-1,-1,-1,-1],"loss_changes":[1.422275E1,1.2702522E1,1.4719263E1,1.0569263E1,9.274994E0,1.2942205E1,1.564175E1,0E0,0E0,0E0,0E0,0E0,0E0,0E0,0E0],"parents":[2147483647,0,0,1,1,2,2,3,3,4,4,5,5,6,6],"right_children":[2,4,6,8,10,12,14,-1,-1,-1,-1,-1,-1,-1,-1],"split_conditions":[6.5541763E-6,5.165788E-1,5.603576E-1,3.6951486E-4,2.091916E-4,2.6001197E-5,9.128214E-1,1.4057263E-2,6.625095E-2,3.54301E-2,-9.096389E-2,1.9448692E-2,-2.6375016E-3,-2.2038564E-2,9.158116E-2],"split_indices":[60,292,305,288,354,315,184,0,0,0,0,0,0,0,0],"split_type":[0,0,0,0,0,0,0,0,0,0,0,0,0,0,0],"sum_hessian":[9.182336E3,1.8516422E2,8.997172E3,1.6228358E2,2.2880627E1,8.48315E3,5.140208E2,9.847898E1,6.3804604E1,8.703143E0,1.4177483E1,2.7318542E2,8.209965E3,5.025752E2,1.1445594E1],"tree_param":{"num_deleted":"0","num_feature":"360","num_nodes":"15","size_leaf_vector":"0"}},{"base_weights":[-2.80598E-1,-1.0479016E0,-3.6578573E-4,-1.0824174E0,1.7409995E-1,-7.23364E-1,8.484474E-3,-1.092661E0,-5.082093E-1,4.595118E-1,-8.5325587E-1,2.7874233E-2,-1.0308944E0,5.5332E-2,-5.5176288E-2],"categories":[],"categories_nodes":[],"categories_segments":[],"categories_sizes":[],"default_left":[1,1,1,1,1,1,1,0,0,0,0,0,0,0,0],"id":50,"left_children":[1,3,5,7,9,11,13,-1,-1,-1,-1,-1,-1,-1,-1],"loss_changes":[1.3513524E3,7.1100586E1,2.946862E1,9.062988E0,1.4186384E1,1.2895433E1,1.3571964E1,0E0,0E0,0E0,0E0,0E0,0E0,0E0,0E0],"parents":[2147483647,0,0,1,1,2,2,3,3,4,4,5,5,6,6],"right_children":[2,4,6,8,10,12,14,-1,-1,-1,-1,-1,-1,-1,-1],"split_conditions":[3.7229776E-2,1.5814096E-1,3.548241E-2,1.599927E-1,5.8762324E-1,2.5854304E-3,4.7477594E-1,-1.092661E-1,-5.0820928E-2,4.595118E-2,-8.532559E-2,2.7874233E-3,-1.03089444E-1,5.5332E-3,-5.517629E-3],"split_indices":[359,263,218,257,307,189,329,0,0,0,0,0,0,0,0],"split_type":[0,0,0,0,0,0,0,0,0,0,0,0,0,0,0],"sum_hessian":[6.283683E3,1.6802507E3,4.6034326E3,1.6342064E3,4.6044285E1,5.4693096E1,4.5487393E3,1.6046768E3,2.9529673E1,3.6466248E1,9.578039E0,1.6150314E1,3.854278E1,2.620478E3,1.9282614E3],"tree_param":{"num_deleted":"0","num_feature":"360","num_nodes":"15","size_leaf_vector":"0"}},{"base_weights":[-2.6282167E-1,-1.0091679E-2,-1.0510031E0,5.026918E-3,-5.597762E-1,-1.0773599E0,-1.0232451E-1,3.0707085E-1,-1.1065106E-2,5.680112E-1,-6.759665E-1,-1.0814292E0,5.329173E-2,-7.322389E-1,2.9232368E-1],"categories":[],"categories_nodes":[],"categories_segments":[],"categories_sizes":[],"default_left":[1,1,1,1,1,1,1,0,0,0,0,0,0,0,0],"id":51,"left_children":[1,3,5,7,9,11,13,-1,-1,-1,-1,-1,-1,-1,-1],"loss_changes":[1.2238033E3,3.867191E1,3.7187744E1,2.2019037E1,1.6706272E1,6.734619E0,1.05126505E1,0E0,0E0,0E0,0E0,0E0,0E0,0E0,0E0],"parents":[2147483647,0,0,1,1,2,2,3,3,4,4,5,5,6,6],"right_children":[2,4,6,8,10,12,14,-1,-1,-1,-1,-1,-1,-1,-1],"split_conditions":[3.3487698E-1,2.4433592E-1,3.2705045E-1,1.3867457E-4,1.7592755E-1,5.7072693E-1,6.2504165E-2,3.0707086E-2,-1.1065106E-3,5.680112E-2,-6.759665E-2,-1.0814293E-1,5.329173E-3,-7.322389E-2,2.9232368E-2],"split_indices":[251,56,357,254,226,66,51,0,0,0,0,0,0,0,0],"split_type":[0,0,0,0,0,0,0,0,0,0,0,0,0,0,0],"sum_hessian":[6.142734E3,4.6520645E3,1.4906696E3,4.5285024E3,1.235617E2,1.4502423E3,4.042729E1,2.2814711E2,4.3003555E3,1.1177736E1,1.12383965E2,1.4450848E3,5.157429E0,1.5242571E1,2.5184721E1],"tree_param":{"num_deleted":"0","num_feature":"360","num_nodes":"15","size_leaf_vector":"0"}},{"base_weights":[-2.8359722E-2,-1.865641E-2,-2.0190118E-1,1.1171009E-2,-8.855854E-2,-2.453565E-1,6.315019E-1,1.984438E-2,-2.6882976E-1,-1.3954176E-1,1.3575199E-2,-7.8640155E-2,-4.7965553E-1,1.6624792E0,1.4663573E-1],"categories":[],"categories_nodes":[],"categories_segments":[],"categories_sizes":[],"default_left":[1,1,1,1,1,1,1,0,0,0,0,0,0,0,0],"id":52,"left_children":[1,3,5,7,9,11,13,-1,-1,-1,-1,-1,-1,-1,-1],"loss_changes":[1.5420417E1,1.8089874E1,1.7716953E1,1.4775415E1,1.3513681E1,1.7993645E1,1.1909346E1,0E0,0E0,0E0,0E0,0E0,0E0,0E0,0E0],"parents":[2147483647,0,0,1,1,2,2,3,3,4,4,5,5,6,6],"right_children":[2,4,6,8,10,12,14,-1,-1,-1,-1,-1,-1,-1,-1],"split_conditions":[5.742035E-1,4.0633368E-1,2.0525612E-2,8.015357E-1,5.548735E-1,4.2134708E-1,1.8143955E-4,1.984438E-3,-2.6882976E-2,-1.3954177E-2,1.3575199E-3,-7.864016E-3,-4.7965553E-2,1.6624792E-1,1.4663572E-2],"split_indices":[216,113,8,234,313,307,101,0,0,0,0,0,0,0,0],"split_type":[0,0,0,0,0,0,0,0,0,0,0,0,0,0,0],"sum_hessian":[9.158651E3,8.674725E3,4.8392676E2,6.08085E3,2.5938743E3,4.60615E2,2.3311794E1,5.899049E3,1.8180122E2,1.72995E3,8.6392444E2,2.6990134E2,1.9071364E2,6.679771E0,1.6632023E1],"tree_param":{"num_deleted":"0","num_feature":"360","num_nodes":"15","size_leaf_vector":"0"}},{"base_weights":[-2.5490585E-1,-1.0611265E0,-2.8176985E-3,-1.0753406E0,5.726908E-2,1.5142049E-2,-6.022373E-1,-4.1887575E-1,-1.0811678E0,1.1555094E0,-4.628703E-1,2.0768449E-2,-5.5877507E-1,-4.2377844E-2,-9.0695435E-1],"categories":[],"categories_nodes":[],"categories_segments":[],"categories_sizes":[],"default_left":[1,1,1,1,1,1,1,0,0,0,0,0,0,0,0],"id":53,"left_children":[1,3,5,7,9,11,13,-1,-1,-1,-1,-1,-1,-1,-1],"loss_changes":[1.2484265E3,2.33219E1,5.0396687E1,5.0742188E0,1.1566736E1,1.4688837E1,2.3193989E1,0E0,0E0,0E0,0E0,0E0,0E0,0E0,0E0],"parents":[2147483647,0,0,1,1,2,2,3,3,4,4,5,5,6,6],"right_children":[2,4,6,8,10,12,14,-1,-1,-1,-1,-1,-1,-1,-1],"split_conditions":[4.38976E-2,2.0849887E-1,2.891776E-1,2.0369252E-3,3.8011882E-1,4.0429583E-1,9.331381E-2,-4.1887578E-2,-1.0811678E-1,1.15550935E-1,-4.628703E-2,2.076845E-3,-5.5877507E-2,-4.2377845E-3,-9.069543E-2],"split_indices":[218,158,342,189,46,249,249,0,0,0,0,0,0,0,0],"split_type":[0,0,0,0,0,0,0,0,0,0,0,0,0,0,0],"sum_hessian":[6.1416777E3,1.4621774E3,4.6795005E3,1.4438651E3,1.8312239E1,4.544319E3,1.3518166E2,1.3345186E1,1.43052E3,5.4928684E0,1.2819371E1,4.5011553E3,4.3163296E1,4.8045784E1,8.713588E1],"tree_param":{"num_deleted":"0","num_feature":"360","num_nodes":"15","size_leaf_vector":"0"}},{"base_weights":[-2.4351448E-1,-5.952926E-3,-1.0371416E0,-5.0267345E-1,9.701817E-3,-1.0775801E0,-3.410855E-1,-8.542691E-1,-9.414673E-2,2.616329E-1,-6.0770307E-3,-1.0796511E0,-4.558385E-1,-6.765759E-1,2.2784485E-1],"categories":[],"categories_nodes":[],"categories_segments":[],"categories_sizes":[],"default_left":[1,1,1,1,1,1,1,0,0,0,0,0,0,0,0],"id":54,"left_children":[1,3,5,7,9,11,13,-1,-1,-1,-1,-1,-1,-1,-1],"loss_changes":[1.1341499E3,3.6013863E1,3.8640625E1,2.0244678E1,1.78512E1,1.1937256E0,1.4957256E1,0E0,0E0,0E0,0E0,0E0,0E0,0E0,0E0],"parents":[2147483647,0,0,1,1,2,2,3,3,4,4,5,5,6,6],"right_children":[2,4,6,8,10,12,14,-1,-1,-1,-1,-1,-1,-1,-1],"split_conditions":[1.8301052E-1,2.8731078E-1,1.1990444E-1,2.0003077E-1,4.3568063E-1,2.0351815E-1,3.327543E-1,-8.542691E-2,-9.414673E-3,2.616329E-2,-6.0770306E-4,-1.0796511E-1,-4.558385E-2,-6.765759E-2,2.2784485E-2],"split_indices":[233,156,357,285,328,231,177,0,0,0,0,0,0,0,0],"split_type":[0,0,0,0,0,0,0,0,0,0,0,0,0,0,0],"sum_hessian":[6.0146167E3,4.629766E3,1.3848505E3,1.4050401E2,4.489262E3,1.3082948E3,7.655568E1,7.492728E1,6.557674E1,2.636792E2,4.225583E3,1.3032173E3,5.077542E0,4.8038704E1,2.8516972E1],"tree_param":{"num_deleted":"0","num_feature":"360","num_nodes":"15","size_leaf_vector":"0"}},{"base_weights":[-1.0596507E-2,9.867878E-1,-1.2090483E-2,1.844036E-1,1.6272606E0,-5.718847E-1,-9.296519E-3,-7.6199305E-1,6.844292E-1,-2.0207348E-1,-2.8167001E-3],"categories":[],"categories_nodes":[],"categories_segments":[],"categories_sizes":[],"default_left":[1,1,1,0,0,1,1,0,0,0,0],"id":55,"left_children":[1,3,5,-1,-1,7,9,-1,-1,-1,-1],"loss_changes":[1.3633103E1,6.732379E0,1.42722645E1,0E0,0E0,1.1345253E1,1.1347182E1,0E0,0E0,0E0,0E0],"parents":[2147483647,0,0,1,1,2,2,5,5,6,6],"right_children":[2,4,6,-1,-1,8,10,-1,-1,-1,-1],"split_conditions":[3.5089953E-10,5.327058E-4,5.0508886E-10,1.844036E-2,1.6272606E-1,8.204371E-1,2.4153653E-4,-7.619931E-2,6.8442926E-2,-2.020735E-2,-2.8167E-4],"split_indices":[347,245,59,0,0,352,185,0,0,0,0],"split_type":[0,0,0,0,0,0,0,0,0,0,0],"sum_hessian":[9.140311E3,1.2684335E1,9.127626E3,6.2021723E0,6.482163E0,4.4318687E1,9.083308E3,3.883548E1,5.4832063E0,2.94407E2,8.7889E3],"tree_param":{"num_deleted":"0","num_feature":"360","num_nodes":"11","size_leaf_vector":"0"}},{"base_weights":[-2.3146586E-1,-1.0135269E0,6.028542E-3,-1.0503936E0,-2.2709398E-1,1.5872434E-2,-6.412412E-1,3.6219728E-1,-1.0560184E0,-9.166779E-1,1.7429544E-1,-2.0432588E-1,2.8616192E-2,-8.6889225E-1,6.933956E-1],"categories":[],"categories_nodes":[],"categories_segments":[],"categories_sizes":[],"default_left":[1,1,1,1,1,1,1,0,0,0,0,0,0,0,0],"id":56,"left_children":[1,3,5,7,9,11,13,-1,-1,-1,-1,-1,-1,-1,-1],"loss_changes":[1.1148705E3,4.0299927E1,2.9353127E1,1.09921875E1,1.7843016E1,1.2737983E1,2.1570759E1,0E0,0E0,0E0,0E0,0E0,0E0,0E0,0E0],"parents":[2147483647,0,0,1,1,2,2,3,3,4,4,5,5,6,6],"right_children":[2,4,6,8,10,12,14,-1,-1,-1,-1,-1,-1,-1,-1],"split_conditions":[7.6978125E-2,2.592489E-1,4.108621E-1,3.714186E-3,5.5701237E-2,2.9062003E-1,2.645827E-1,3.6219727E-2,-1.0560184E-1,-9.166779E-2,1.7429544E-2,-2.043259E-2,2.8616192E-3,-8.688923E-2,6.9339566E-2],"split_indices":[239,59,357,120,206,196,221,0,0,0,0,0,0,0,0],"split_type":[0,0,0,0,0,0,0,0,0,0,0,0,0,0,0],"sum_hessian":[6.0014424E3,1.3972098E3,4.6042324E3,1.3343234E3,6.2886467E1,4.5362197E3,6.801285E1,5.0405774E0,1.3292827E3,2.2664783E1,4.0221684E1,2.473443E2,4.288875E3,5.840038E1,9.612473E0],"tree_param":{"num_deleted":"0","num_feature":"360","num_nodes":"15","size_leaf_vector":"0"}},{"base_weights":[-2.1813722E-1,4.364348E-3,-1.0169958E0,2.1683244E-2,-3.832558E-1,-1.0603449E0,-2.6773363E-1,1.9323897E-1,-2.5117511E-3,-7.447331E-1,-1.0468209E-2,-1.0642766E0,-3.0733496E-1,-8.1666166E-1,1.3688138E-1],"categories":[],"categories_nodes":[],"categories_segments":[],"categories_sizes":[],"default_left":[1,1,1,1,1,1,1,0,0,0,0,0,0,0,0],"id":57,"left_children":[1,3,5,7,9,11,13,-1,-1,-1,-1,-1,-1,-1,-1],"loss_changes":[1.04171E3,3.078727E1,4.118396E1,1.8221327E1,2.642353E1,3.244995E0,1.5917637E1,0E0,0E0,0E0,0E0,0E0,0E0,0E0,0E0],"parents":[2147483647,0,0,1,1,2,2,3,3,4,4,5,5,6,6],"right_children":[2,4,6,8,10,12,14,-1,-1,-1,-1,-1,-1,-1,-1],"split_conditions":[1.8301052E-1,1.8216361E-1,1.7848249E-1,2.1510163E-1,2.6764292E-1,3.6205924E-1,9.9159345E-2,1.9323898E-2,-2.511751E-4,-7.4473314E-2,-1.0468209E-3,-1.0642766E-1,-3.0733496E-2,-8.1666164E-2,1.3688139E-2],"split_indices":[233,161,357,100,333,249,150,0,0,0,0,0,0,0,0],"split_type":[0,0,0,0,0,0,0,0,0,0,0,0,0,0,0],"sum_hessian":[5.859599E3,4.5838735E3,1.275726E3,4.3887285E3,1.9514464E2,1.2055619E3,7.0164024E1,5.415879E2,3.8471409E3,9.856873E1,9.657591E1,1.1988889E3,6.6729884E0,2.9340439E1,4.0823586E1],"tree_param":{"num_deleted":"0","num_feature":"360","num_nodes":"15","size_leaf_vector":"0"}},{"base_weights":[-6.648319E-3,-1.6131373E-1,3.36481E-3,9.1626E-1,-1.830386E-1,1.9363618E-2,-9.892438E-2,-1.5627574E0,-1.6434677E-1,-3.5129276E-1,2.399089E-2,-1.7944506E-1,6.5298125E-2],"categories":[],"categories_nodes":[],"categories_segments":[],"categories_sizes":[],"default_left":[1,1,1,0,1,1,1,0,0,0,0,0,0],"id":58,"left_children":[1,3,5,-1,7,9,11,-1,-1,-1,-1,-1,-1],"loss_changes":[1.4152971E1,1.3176031E1,1.4049159E1,0E0,1.3811895E1,1.2740767E1,1.536573E1,0E0,0E0,0E0,0E0,0E0,0E0],"parents":[2147483647,0,0,1,1,2,2,4,4,5,5,6,6],"right_children":[2,4,6,-1,8,10,12,-1,-1,-1,-1,-1,-1],"split_conditions":[3.994209E-4,4.6487417E-5,5.088637E-1,9.1626E-2,1.28719065E-24,1.1484365E-1,6.354586E-1,-1.5627573E-1,-1.6434677E-2,-3.5129275E-2,2.399089E-3,-1.7944505E-2,6.5298127E-3],"split_indices":[107,182,263,0,197,175,202,0,0,0,0,0,0],"split_type":[0,0,0,0,0,0,0,0,0,0,0,0,0],"sum_hessian":[9.137354E3,5.5466974E2,8.582684E3,1.0147926E1,5.445218E2,7.4225513E3,1.1601327E3,6.1741905E0,5.383476E2,9.059679E1,7.331954E3,7.783861E2,3.8174664E2],"tree_param":{"num_deleted":"0","num_feature":"360","num_nodes":"13","size_leaf_vector":"0"}},{"base_weights":[-2.2445816E-1,-8.825597E-3,-1.029356E0,3.7840942E-3,-6.724744E-1,-1.0453917E0,9.6545234E-2,9.8928E-3,-5.1948905E-1,3.4097925E-1,-8.9001155E-1,-1.0530049E0,-2.5373442E-2,-5.367966E-1,8.7643516E-1],"categories":[],"categories_nodes":[],"categories_segments":[],"categories_sizes":[],"default_left":[1,1,1,1,1,1,1,0,0,0,0,0,0,0,0],"id":59,"left_children":[1,3,5,7,9,11,13,-1,-1,-1,-1,-1,-1,-1,-1],"loss_changes":[1.0245269E3,3.897195E1,2.2619751E1,1.4616098E1,1.944772E1,9.52356E0,9.573843E0,0E0,0E0,0E0,0E0,0E0,0E0,0E0,0E0],"parents":[2147483647,0,0,1,1,2,2,3,3,4,4,5,5,6,6],"right_children":[2,4,6,8,10,12,14,-1,-1,-1,-1,-1,-1,-1,-1],"split_conditions":[2.883941E-1,4.0381467E-1,2.255362E-1,1.5971863E-1,7.272896E-2,8.2692313E-1,3.203027E-2,9.892801E-4,-5.1948905E-2,3.4097925E-2,-8.900116E-2,-1.05300486E-1,-2.5373443E-3,-5.3679664E-2,8.764352E-2],"split_indices":[216,357,260,339,204,89,180,0,0,0,0,0,0,0,0],"split_type":[0,0,0,0,0,0,0,0,0,0,0,0,0,0,0],"sum_hessian":[5.901991E3,4.6557295E3,1.2462616E3,4.5698936E3,8.583619E1,1.2288313E3,1.7430239E1,4.51813E3,5.1763687E1,1.506845E1,7.076774E1,1.2196956E3,9.135829E0,9.790865E0,7.6393743E0],"tree_param":{"num_deleted":"0","num_feature":"360","num_nodes":"15","size_leaf_vector":"0"}},{"base_weights":[-1.921663E-1,1.2328823E-2,-1.005481E0,2.3487387E-2,-6.3807255E-1,-1.0521013E0,-2.949143E-1,1.19032934E-1,-1.2277089E-2,5.1197636E-1,-9.1575533E-1,-1.0564381E0,-2.721558E-1,-6.3708717E-1,3.970692E-1],"categories":[],"categories_nodes":[],"categories_segments":[],"categories_sizes":[],"default_left":[1,1,1,1,1,1,1,0,0,0,0,0,0,0,0],"id":60,"left_children":[1,3,5,7,9,11,13,-1,-1,-1,-1,-1,-1,-1,-1],"loss_changes":[9.622894E2,3.3575848E1,3.8198486E1,1.5539995E1,2.5388693E1,3.401123E0,1.752895E1,0E0,0E0,0E0,0E0,0E0,0E0,0E0,0E0],"parents":[2147483647,0,0,1,1,2,2,3,3,4,4,5,5,6,6],"right_children":[2,4,6,8,10,12,14,-1,-1,-1,-1,-1,-1,-1,-1],"split_conditions":[1.8757826E-1,1.8811671E-1,1.1990444E-1,3.9975703E-1,2.1811666E-2,3.6205924E-1,1.1628871E-1,1.1903293E-2,-1.2277089E-3,5.1197637E-2,-9.157553E-2,-1.0564381E-1,-2.721558E-2,-6.3708715E-2,3.970692E-2],"split_indices":[233,260,357,358,95,249,201,0,0,0,0,0,0,0,0],"split_type":[0,0,0,0,0,0,0,0,0,0,0,0,0,0,0],"sum_hessian":[5.784736E3,4.623272E3,1.1614639E3,4.5462383E3,7.7033325E1,1.089501E3,7.196278E1,1.2376099E3,3.3086287E3,1.4818284E1,6.2215042E1,1.0831239E3,6.3771167E0,4.8205433E1,2.375735E1],"tree_param":{"num_deleted":"0","num_feature":"360","num_nodes":"15","size_leaf_vector":"0"}},{"base_weights":[6.027626E-4,-3.3777297E-2,3.775622E-2,-1.4015336E-1,-7.7456655E-3,-5.8725543E-2,7.341008E-2,-1.1417938E-1,-1.0163561E0,7.810592E-6,-4.7854474E-1,-4.6181615E-2,-9.548113E-1,1.8862693E-1,2.24501E-2],"categories":[],"categories_nodes":[],"categories_segments":[],"categories_sizes":[],"default_left":[1,1,1,1,1,1,1,0,0,0,0,0,0,0,0],"id":61,"left_children":[1,3,5,7,9,11,13,-1,-1,-1,-1,-1,-1,-1,-1],"loss_changes":[1.1710276E1,1.3184428E1,1.5161176E1,2.1187698E1,1.3968018E1,1.3325865E1,1.888821E1,0E0,0E0,0E0,0E0,0E0,0E0,0E0,0E0],"parents":[2147483647,0,0,1,1,2,2,3,3,4,4,5,5,6,6],"right_children":[2,4,6,8,10,12,14,-1,-1,-1,-1,-1,-1,-1,-1],"split_conditions":[5.881593E-1,1.1328547E-3,4.57292E-4,8.0278337E-1,7.891696E-1,7.447218E-1,3.5860312E-1,-1.1417938E-2,-1.0163561E-1,7.810592E-7,-4.7854476E-2,-4.618162E-3,-9.548113E-2,1.8862693E-2,2.24501E-3],"split_indices":[112,144,155,157,243,306,136,0,0,0,0,0,0,0,0],"split_type":[0,0,0,0,0,0,0,0,0,0,0,0,0,0,0],"sum_hessian":[9.16572E3,4.7605874E3,4.405133E3,9.350796E2,3.8255078E3,1.1884525E3,3.2166802E3,9.092561E2,2.5823496E1,3.764511E3,6.0996838E1,1.1730825E3,1.5369949E1,9.8560236E2,2.231078E3],"tree_param":{"num_deleted":"0","num_feature":"360","num_nodes":"15","size_leaf_vector":"0"}},{"base_weights":[-2.0256911E-1,-1.013232E0,-2.532224E-5,-1.0363327E0,5.301819E-2,1.6869081E-2,-4.2647314E-1,-1.0425338E0,-3.0175874E-1,7.5518054E-1,-7.7276516E-1,-7.6148957E-3,1.4694904E-1,-1.3511333E-1,-8.023788E-1],"categories":[],"categories_nodes":[],"categories_segments":[],"categories_sizes":[],"default_left":[1,1,1,1,1,1,1,0,0,0,0,0,0,0,0],"id":62,"left_children":[1,3,5,7,9,11,13,-1,-1,-1,-1,-1,-1,-1,-1],"loss_changes":[9.50441E2,2.855664E1,3.3381382E1,4.8448486E0,1.5363304E1,1.4195448E1,1.922942E1,0E0,0E0,0E0,0E0,0E0,0E0,0E0,0E0],"parents":[2147483647,0,0,1,1,2,2,3,3,4,4,5,5,6,6],"right_children":[2,4,6,8,10,12,14,-1,-1,-1,-1,-1,-1,-1,-1],"split_conditions":[1.0589457E-1,2.2252966E-1,6.9636844E-2,3.452736E-1,1.5899889E-1,8.4536815E-1,1.6554025E-1,-1.04253374E-1,-3.0175874E-2,7.551806E-2,-7.727652E-2,-7.6148956E-4,1.4694904E-2,-1.3511333E-2,-8.023788E-2],"split_indices":[251,206,114,149,216,91,276,0,0,0,0,0,0,0,0],"split_type":[0,0,0,0,0,0,0,0,0,0,0,0,0,0,0],"sum_hessian":[5.7874985E3,1.1561423E3,4.6313564E3,1.1316527E3,2.4489586E1,4.4557935E3,1.7556285E2,1.1217639E3,9.888839E0,1.3281687E1,1.12079E1,3.7507578E3,7.050356E2,9.966961E1,7.589324E1],"tree_param":{"num_deleted":"0","num_feature":"360","num_nodes":"15","size_leaf_vector":"0"}},{"base_weights":[-1.8641041E-1,-2.80218E-4,-1.0003315E0,8.833599E-3,-7.019566E-1,-1.0476637E0,-2.9727823E-1,3.4899358E-3,7.736907E-1,-9.5110327E-1,3.9128566E-1,-1.0513097E0,-2.7733085E-1,-6.0496706E-1,1.7358223E-1],"categories":[],"categories_nodes":[],"categories_segments":[],"categories_sizes":[],"default_left":[1,1,1,1,1,1,1,0,0,0,0,0,0,0,0],"id":63,"left_children":[1,3,5,7,9,11,13,-1,-1,-1,-1,-1,-1,-1,-1],"loss_changes":[8.6150024E2,2.9610004E1,3.4909058E1,1.8679113E1,1.654295E1,2.4925537E0,9.979519E0,0E0,0E0,0E0,0E0,0E0,0E0,0E0,0E0],"parents":[2147483647,0,0,1,1,2,2,3,3,4,4,5,5,6,6],"right_children":[2,4,6,8,10,12,14,-1,-1,-1,-1,-1,-1,-1,-1],"split_conditions":[1.9478624E-1,2.403937E-1,1.1990444E-1,9.9771106E-1,4.7664806E-1,1.993159E-1,4.6658587E-1,3.4899358E-4,7.736907E-2,-9.511033E-2,3.9128568E-2,-1.0513097E-1,-2.7733086E-2,-6.0496707E-2,1.7358223E-2],"split_indices":[233,221,357,13,324,231,186,0,0,0,0,0,0,0,0],"split_type":[0,0,0,0,0,0,0,0,0,0,0,0,0,0,0],"sum_hessian":[5.685649E3,4.6282466E3,1.0574026E3,4.5698774E3,5.836905E1,9.9024536E2,6.715717E1,4.5391694E3,3.070828E1,4.7641674E1,1.0727376E1,9.852175E2,5.027831E0,4.044388E1,2.6713297E1],"tree_param":{"num_deleted":"0","num_feature":"360","num_nodes":"15","size_leaf_vector":"0"}},{"base_weights":[-7.9341E-3,-7.069426E-1,-5.940436E-3,-1.0515757E0,2.647811E-1,1.00861415E-2,-9.040703E-2,-3.7288412E-1,-1.4155768E0,7.5435573E-3,8.510839E-1,-8.1246555E-2,-1.2182403E0],"categories":[],"categories_nodes":[],"categories_segments":[],"categories_sizes":[],"default_left":[1,1,1,1,0,1,1,0,0,0,0,0,0],"id":64,"left_children":[1,3,5,7,-1,9,11,-1,-1,-1,-1,-1,-1],"loss_changes":[1.2786483E1,9.017213E0,1.2391613E1,4.2806206E0,0E0,1.644637E1,1.4983302E1,0E0,0E0,0E0,0E0,0E0,0E0],"parents":[2147483647,0,0,1,1,2,2,3,3,5,5,6,6],"right_children":[2,4,6,8,-1,10,12,-1,-1,-1,-1,-1,-1],"split_conditions":[6.7013214E-5,5.737324E-1,5.9415007E-1,8.906929E-4,2.647811E-2,7.5089836E-1,6.9068134E-1,-3.7288412E-2,-1.4155768E-1,7.5435574E-4,8.510839E-2,-8.124656E-3,-1.21824026E-1],"split_indices":[185,307,267,254,0,17,161,0,0,0,0,0,0],"split_type":[0,0,0,0,0,0,0,0,0,0,0,0,0],"sum_hessian":[9.177234E3,2.5094612E1,9.15214E3,1.8463974E1,6.6306376E0,7.6933037E3,1.4588364E3,7.152435E0,1.1311539E1,7.6711206E3,2.2183092E1,1.4481464E3,1.069008E1],"tree_param":{"num_deleted":"0","num_feature":"360","num_nodes":"13","size_leaf_vector":"0"}},{"base_weights":[-1.8541968E-1,-1.000371E0,-3.501533E-4,-2.2647063E-1,-1.0378218E0,1.47087E-2,-4.7561797E-1,4.078746E-1,-8.0855846E-1,-4.6651143E-1,-1.0404828E0,-1.0372632E-2,1.761951E-1,-8.132058E-1,-9.170514E-2],"categories":[],"categories_nodes":[],"categories_segments":[],"categories_sizes":[],"default_left":[1,1,1,1,1,1,1,0,0,0,0,0,0,0,0],"id":65,"left_children":[1,3,5,7,9,11,13,-1,-1,-1,-1,-1,-1,-1,-1],"loss_changes":[8.546134E2,3.0158081E1,3.3062996E1,1.8675003E1,1.03479E0,1.813833E1,1.8313553E1,0E0,0E0,0E0,0E0,0E0,0E0,0E0,0E0],"parents":[2147483647,0,0,1,1,2,2,3,3,4,4,5,5,6,6],"right_children":[2,4,6,8,10,12,14,-1,-1,-1,-1,-1,-1,-1,-1],"split_conditions":[1.04222246E-1,2.1168746E-1,1.7304085E-1,2.4357699E-1,3.2547521E-3,7.4329174E-1,3.033529E-3,4.0787462E-2,-8.085585E-2,-4.6651144E-2,-1.04048274E-1,-1.0372632E-3,1.7619511E-2,-8.132058E-2,-9.1705145E-3],"split_indices":[251,216,357,330,159,200,209,0,0,0,0,0,0,0,0],"split_type":[0,0,0,0,0,0,0,0,0,0,0,0,0,0,0],"sum_hessian":[5.6653486E3,1.0476461E3,4.617702E3,4.8683086E1,9.989631E2,4.476823E3,1.4087901E2,2.3439056E1,2.5244028E1,5.4486747E0,9.935144E2,3.875789E3,6.010342E2,7.436718E1,6.651183E1],"tree_param":{"num_deleted":"0","num_feature":"360","num_nodes":"15","size_leaf_vector":"0"}},{"base_weights":[-1.5824789E-1,1.2698395E-2,-9.9969774E-1,2.162372E-2,-8.4312046E-1,-1.0363222E0,-2.2458409E-1,1.16044424E-1,-3.6271915E-2,-9.6729326E-1,-9.254579E-2,-1.5811193E-1,-1.045971E0,8.7207603E-1,-4.702175E-1],"categories":[],"categories_nodes":[],"categories_segments":[],"categories_sizes":[],"default_left":[1,1,1,1,1,1,1,0,0,0,0,0,0,0,0],"id":66,"left_children":[1,3,5,7,9,11,13,-1,-1,-1,-1,-1,-1,-1,-1],"loss_changes":[8.057208E2,3.5586727E1,2.6617065E1,2.5201788E1,4.392174E0,7.4851685E0,1.2249241E1,0E0,0E0,0E0,0E0,0E0,0E0,0E0,0E0],"parents":[2147483647,0,0,1,1,2,2,3,3,4,4,5,5,6,6],"right_children":[2,4,6,8,10,12,14,-1,-1,-1,-1,-1,-1,-1,-1],"split_conditions":[2.0807204E-1,3.0882326E-1,1.06066614E-1,7.311328E-4,3.6265355E-1,1.636809E-2,2.9208452E-2,1.1604442E-2,-3.6271915E-3,-9.672933E-2,-9.254579E-3,-1.5811194E-2,-1.0459711E-1,8.720761E-2,-4.702175E-2],"split_indices":[221,233,216,206,63,68,116,0,0,0,0,0,0,0,0],"split_type":[0,0,0,0,0,0,0,0,0,0,0,0,0,0,0],"sum_hessian":[5.6003125E3,4.655501E3,9.448118E2,4.6084146E3,4.708636E1,9.018615E2,4.295031E1,1.7512825E3,2.857132E3,4.015457E1,6.9317884E0,9.989943E0,8.918716E2,7.3930087E0,3.55573E1],"tree_param":{"num_deleted":"0","num_feature":"360","num_nodes":"15","size_leaf_vector":"0"}},{"base_weights":[-4.0443395E-3,-7.1120836E-2,2.0805253E-2,-1.1014244E-1,8.740281E-2,-5.086581E-2,5.2314196E-2,-9.3366295E-2,-5.30263E-1,-7.8490436E-2,2.5329596E-1,-7.075724E-2,3.5333192E-1,4.9392737E-2,9.566134E-1],"categories":[],"categories_nodes":[],"categories_segments":[],"categories_sizes":[],"default_left":[1,1,1,1,1,1,1,0,0,0,0,0,0,0,0],"id":67,"left_children":[1,3,5,7,9,11,13,-1,-1,-1,-1,-1,-1,-1,-1],"loss_changes":[1.5293747E1,1.5352319E1,1.5122311E1,1.3981617E1,1.3518585E1,1.6467577E1,1.2240445E1,0E0,0E0,0E0,0E0,0E0,0E0,0E0,0E0],"parents":[2147483647,0,0,1,1,2,2,3,3,4,4,5,5,6,6],"right_children":[2,4,6,8,10,12,14,-1,-1,-1,-1,-1,-1,-1,-1],"split_conditions":[4.0075648E-1,5.147893E-1,4.2218095E-1,8.5205925E-1,1.9136301E-4,7.716469E-1,7.828542E-1,-9.33663E-3,-5.30263E-2,-7.849044E-3,2.5329595E-2,-7.075724E-3,3.5333194E-2,4.939274E-3,9.566134E-2],"split_indices":[358,326,70,141,177,304,88,0,0,0,0,0,0,0,0],"split_type":[0,0,0,0,0,0,0,0,0,0,0,0,0,0,0],"sum_hessian":[9.173496E3,2.4792896E3,6.694207E3,1.9897941E3,4.8949536E2,2.0440785E3,4.6501284E3,1.9145645E3,7.522967E1,2.4501103E2,2.4448431E2,1.9489895E3,9.5088974E1,4.636205E3,1.3923262E1],"tree_param":{"num_deleted":"0","num_feature":"360","num_nodes":"15","size_leaf_vector":"0"}},{"base_weights":[-1.5944563E-1,-9.96123E-1,9.067709E-3,-7.209855E-2,-1.0237026E0,2.3517339E-2,-4.6727768E-1,-4.906234E-1,7.9016864E-1,-1.0286679E0,-1.0958724E-1,9.745921E-2,-1.7621953E-2,-7.621484E-1,1.686958E-1],"categories":[],"categories_nodes":[],"categories_segments":[],"categories_sizes":[],"default_left":[1,1,1,1,1,1,1,0,0,0,0,0,0,0,0],"id":68,"left_children":[1,3,5,7,9,11,13,-1,-1,-1,-1,-1,-1,-1,-1],"loss_changes":[7.8663525E2,2.376233E1,3.1982046E1,1.0558625E1,4.0092773E0,1.3718086E1,2.5782728E1,0E0,0E0,0E0,0E0,0E0,0E0,0E0,0E0],"parents":[2147483647,0,0,1,1,2,2,3,3,4,4,5,5,6,6],"right_children":[2,4,6,8,10,12,14,-1,-1,-1,-1,-1,-1,-1,-1],"split_conditions":[4.1360244E-2,5.9379404E-3,3.2641318E-1,5.46607E-1,3.618461E-1,4.4057122E-1,2.2953194E-1,-4.906234E-2,7.9016864E-2,-1.0286679E-1,-1.0958724E-2,9.745921E-3,-1.7621954E-3,-7.621484E-2,1.686958E-2],"split_indices":[218,189,288,280,149,358,257,0,0,0,0,0,0,0,0],"split_type":[0,0,0,0,0,0,0,0,0,0,0,0,0,0,0],"sum_hessian":[5.5782534E3,9.3433264E2,4.643921E3,2.7183723E1,9.071489E2,4.5081206E3,1.3580031E2,1.8591055E1,8.592667E0,9.021234E2,5.0255065E0,1.6110765E3,2.8970442E3,9.264624E1,4.3154064E1],"tree_param":{"num_deleted":"0","num_feature":"360","num_nodes":"15","size_leaf_vector":"0"}},{"base_weights":[-1.4721557E-1,1.4333969E-2,-9.618637E-1,1.939815E-2,-7.695042E-1,-1.0236106E0,-6.755715E-2,1.222184E-1,-1.8361485E-2,-1.0146824E0,2.8805053E-1,-1.030833E0,1.0248671E-2,-3.909691E-1,6.713531E-1],"categories":[],"categories_nodes":[],"categories_segments":[],"categories_sizes":[],"default_left":[1,1,1,1,1,1,1,0,0,0,0,0,0,0,0],"id":69,"left_children":[1,3,5,7,9,11,13,-1,-1,-1,-1,-1,-1,-1,-1],"loss_changes":[7.2582654E2,1.828792E1,5.0330322E1,1.7763609E1,7.960703E0,6.3849487E0,1.4604895E1,0E0,0E0,0E0,0E0,0E0,0E0,0E0,0E0],"parents":[2147483647,0,0,1,1,2,2,3,3,4,4,5,5,6,6],"right_children":[2,4,6,8,10,12,14,-1,-1,-1,-1,-1,-1,-1,-1],"split_conditions":[2.4151418E-1,2.5826913E-1,1.5626206E-1,3.997479E-1,5.9434456E-1,4.5436108E-1,4.5821542E-1,1.222184E-2,-1.8361484E-3,-1.0146824E-1,2.8805053E-2,-1.03083305E-1,1.0248672E-3,-3.909691E-2,6.713531E-2],"split_indices":[65,260,357,358,9,204,222,0,0,0,0,0,0,0,0],"split_type":[0,0,0,0,0,0,0,0,0,0,0,0,0,0,0],"sum_hessian":[5.514042E3,4.602351E3,9.1169104E2,4.5737764E3,2.8574762E1,8.52674E2,5.901704E1,1.2279115E3,3.3458647E3,2.3229816E1,5.344946E0,8.4676154E2,5.91245E0,4.1377502E1,1.763954E1],"tree_param":{"num_deleted":"0","num_feature":"360","num_nodes":"15","size_leaf_vector":"0"}},{"base_weights":[-7.3471963E-3,-7.4725516E-2,1.33504085E-2,-1.7653349E-1,1.2179213E-3,1.2634901E-3,2.2364065E-1,1.9046906E-1,-2.2472857E-1,4.7075E-2,-2.547085E-1,-7.729859E-2,2.6544072E-2,1.6157465E-1,7.990295E-1],"categories":[],"categories_nodes":[],"categories_segments":[],"categories_sizes":[],"default_left":[1,1,1,1,1,1,1,0,0,0,0,0,0,0,0],"id":70,"left_children":[1,3,5,7,9,11,13,-1,-1,-1,-1,-1,-1,-1,-1],"loss_changes":[1.2728561E1,1.6583504E1,1.7747965E1,1.6251596E1,1.4441109E1,1.3118487E1,1.3424507E1,0E0,0E0,0E0,0E0,0E0,0E0,0E0,0E0],"parents":[2147483647,0,0,1,1,2,2,3,3,4,4,5,5,6,6],"right_children":[2,4,6,8,10,12,14,-1,-1,-1,-1,-1,-1,-1,-1],"split_conditions":[1.2766676E-3,5.7957834E-1,5.3163755E-1,4.2739123E-1,4.9214363E-1,8.577581E-4,5.9914243E-1,1.9046906E-2,-2.2472857E-2,4.7075E-3,-2.5470851E-2,-7.729859E-3,2.6544072E-3,1.6157465E-2,7.9902954E-2],"split_indices":[87,59,353,245,113,350,64,0,0,0,0,0,0,0,0],"split_type":[0,0,0,0,0,0,0,0,0,0,0,0,0,0,0],"sum_hessian":[9.125516E3,2.1438582E3,6.9816577E3,9.153872E2,1.228471E3,6.6031333E3,3.7852435E2,1.05913124E2,8.0947406E2,1.0424924E3,1.8597849E2,1.6070372E3,4.996096E3,3.4282532E2,3.5699043E1],"tree_param":{"num_deleted":"0","num_feature":"360","num_nodes":"15","size_leaf_vector":"0"}},{"base_weights":[-1.5556213E-1,-9.8143786E-1,5.8349996E-4,-1.0067339E0,2.677665E-1,7.937863E-3,-7.8692836E-1,-1.0178478E0,-3.984442E-1,9.635294E-1,-6.8046635E-1,-2.4214686E-1,2.2951001E-2,1.6325177E-1,-9.675821E-1],"categories":[],"categories_nodes":[],"categories_segments":[],"categories_sizes":[],"default_left":[1,1,1,1,1,1,1,0,0,0,0,0,0,0,0],"id":71,"left_children":[1,3,5,7,9,11,13,-1,-1,-1,-1,-1,-1,-1,-1],"loss_changes":[7.065266E2,2.7797852E1,2.669779E1,5.368286E0,1.2584078E1,1.715253E1,7.4790745E0,0E0,0E0,0E0,0E0,0E0,0E0,0E0,0E0],"parents":[2147483647,0,0,1,1,2,2,3,3,4,4,5,5,6,6],"right_children":[2,4,6,8,10,12,14,-1,-1,-1,-1,-1,-1,-1,-1],"split_conditions":[9.361783E-2,8.767204E-2,7.605325E-2,8.060032E-2,1.1461936E-1,2.9313934E-1,1.171647E-2,-1.0178478E-1,-3.984442E-2,9.635294E-2,-6.804664E-2,-2.4214687E-2,2.2951001E-3,1.6325178E-2,-9.675821E-2],"split_indices":[251,185,72,146,93,166,141,0,0,0,0,0,0,0,0],"split_type":[0,0,0,0,0,0,0,0,0,0,0,0,0,0,0],"sum_hessian":[5.477777E3,8.701498E2,4.6076274E3,8.5306946E2,1.7080357E1,4.5659766E3,4.1650517E1,8.371018E2,1.5967616E1,9.842398E0,7.23796E0,2.5772562E2,4.308251E3,6.6691704E0,3.4981346E1],"tree_param":{"num_deleted":"0","num_feature":"360","num_nodes":"15","size_leaf_vector":"0"}},{"base_weights":[-1.4199714E-1,2.9844414E-3,-9.7595793E-1,1.9770613E-2,-3.3888337E-1,-1.023102E0,-2.1357733E-1,1.83212E-1,-3.6795472E-3,-7.5993264E-1,-1.8395643E-1,-1.0310223E0,-3.066062E-1,-8.6248934E-1,1.419352E-1],"categories":[],"categories_nodes":[],"categories_segments":[],"categories_sizes":[],"default_left":[1,1,1,1,1,1,1,0,0,0,0,0,0,0,0],"id":72,"left_children":[1,3,5,7,9,11,13,-1,-1,-1,-1,-1,-1,-1,-1],"loss_changes":[6.587075E2,2.6646067E1,2.8780945E1,1.6963459E1,1.4036413E1,3.9944458E0,1.1253956E1,0E0,0E0,0E0,0E0,0E0,0E0,0E0,0E0],"parents":[2147483647,0,0,1,1,2,2,3,3,4,4,5,5,6,6],"right_children":[2,4,6,8,10,12,14,-1,-1,-1,-1,-1,-1,-1,-1],"split_conditions":[3.443364E-1,1.415157E-1,1.4487493E-1,5.197644E-4,1.0594438E-2,2.5068486E-1,7.2301425E-2,1.83212E-2,-3.6795472E-4,-7.599326E-2,-1.8395644E-2,-1.0310223E-1,-3.066062E-2,-8.6248934E-2,1.419352E-2],"split_indices":[251,50,357,173,72,216,228,0,0,0,0,0,0,0,0],"split_type":[0,0,0,0,0,0,0,0,0,0,0,0,0,0,0],"sum_hessian":[5.4469395E3,4.641095E3,8.058441E2,4.424775E3,2.1632027E2,7.585922E2,4.7251904E1,5.543425E2,3.8704326E3,5.7135746E1,1.5918452E2,7.4986414E2,8.7280655E0,1.62199E1,3.1032001E1],"tree_param":{"num_deleted":"0","num_feature":"360","num_nodes":"15","size_leaf_vector":"0"}},{"base_weights":[-7.722729E-3,-1.5821545E-1,1.8417895E-3,-1.8249978E-1,1.1358485E0,-2.3845716E-1,8.229474E-3,-2.1724597E-1,6.742887E-1,-3.303284E-1,5.224063E-1,7.6677006E-1,6.4015705E-3],"categories":[],"categories_nodes":[],"categories_segments":[],"categories_sizes":[],"default_left":[1,1,1,1,0,1,1,0,0,0,0,0,0],"id":73,"left_children":[1,3,5,7,-1,9,11,-1,-1,-1,-1,-1,-1],"loss_changes":[1.3146682E1,1.7358986E1,1.3184937E1,1.6121046E1,0E0,1.572031E1,1.1596384E1,0E0,0E0,0E0,0E0,0E0,0E0],"parents":[2147483647,0,0,1,1,2,2,3,3,5,5,6,6],"right_children":[2,4,6,8,-1,10,12,-1,-1,-1,-1,-1,-1],"split_conditions":[2.8136504E-4,9.163419E-1,1.3461043E-4,4.109503E-2,1.1358485E-1,7.4948287E-1,5.7403586E-4,-2.1724597E-2,6.742887E-2,-3.3032842E-2,5.224063E-2,7.667701E-2,6.401571E-4],"split_indices":[210,322,254,81,0,244,116,0,0,0,0,0,0],"split_type":[0,0,0,0,0,0,0,0,0,0,0,0,0],"sum_hessian":[9.132305E3,5.447891E2,8.587516E3,5.355971E2,9.192018E0,2.2142369E2,8.366092E3,5.154404E2,2.0156713E1,1.9807301E2,2.3350681E1,1.9105814E1,8.346986E3],"tree_param":{"num_deleted":"0","num_feature":"360","num_nodes":"13","size_leaf_vector":"0"}},{"base_weights":[-1.340005E-1,-9.5375603E-1,1.0156911E-2,-1.309864E-1,-9.9787945E-1,1.897138E-2,-6.001613E-1,-7.9561865E-1,3.7613165E-1,-1.5740806E-1,-1.0032547E0,-5.5206496E-1,2.6414646E-2,-1.0282815E0,-1.9599175E-1],"categories":[],"categories_nodes":[],"categories_segments":[],"categories_sizes":[],"default_left":[1,1,1,1,1,1,1,0,0,0,0,0,0,0,0],"id":74,"left_children":[1,3,5,7,9,11,13,-1,-1,-1,-1,-1,-1,-1,-1],"loss_changes":[6.44205E2,2.9466248E1,2.4956642E1,1.4673268E1,3.3370972E0,1.9447025E1,1.12266865E1,0E0,0E0,0E0,0E0,0E0,0E0,0E0,0E0],"parents":[2147483647,0,0,1,1,2,2,3,3,4,4,5,5,6,6],"right_children":[2,4,6,8,10,12,14,-1,-1,-1,-1,-1,-1,-1,-1],"split_conditions":[1.0753022E-1,8.0506116E-2,5.087403E-1,4.7326706E-2,3.4525793E-3,9.557376E-8,1.8170464E-1,-7.956187E-2,3.7613165E-2,-1.5740806E-2,-1.00325465E-1,-5.5206496E-2,2.6414646E-3,-1.02828145E-1,-1.9599175E-2],"split_indices":[65,357,255,299,162,183,278,0,0,0,0,0,0,0,0],"split_type":[0,0,0,0,0,0,0,0,0,0,0,0,0,0,0],"sum_hessian":[5.4502515E3,8.1426904E2,4.6359824E3,4.1646904E1,7.7262213E2,4.570936E3,6.504644E1,1.7778017E1,2.3868887E1,5.102318E0,7.6751984E2,5.787251E1,4.5130635E3,3.0837439E1,3.4209003E1],"tree_param":{"num_deleted":"0","num_feature":"360","num_nodes":"15","size_leaf_vector":"0"}},{"base_weights":[-1.3207552E-1,4.2460407E-3,-9.414052E-1,3.89512E-2,-1.08124845E-1,-1.5047948E-1,-1.0025426E0,3.5712294E-2,1.280944E0,-1.4083032E-1,3.353571E-1,-6.115389E-1,4.8296952E-1,-1.0174955E0,-2.6403275E-1],"categories":[],"categories_nodes":[],"categories_segments":[],"categories_sizes":[],"default_left":[1,1,1,1,1,1,1,0,0,0,0,0,0,0,0],"id":75,"left_children":[1,3,5,7,9,11,13,-1,-1,-1,-1,-1,-1,-1,-1],"loss_changes":[5.917062E2,1.7908197E1,3.7233704E1,1.4067348E1,1.5763758E1,1.6840424E1,7.654358E0,0E0,0E0,0E0,0E0,0E0,0E0,0E0,0E0],"parents":[2147483647,0,0,1,1,2,2,3,3,4,4,5,5,6,6],"right_children":[2,4,6,8,10,12,14,-1,-1,-1,-1,-1,-1,-1,-1],"split_conditions":[2.3690124E-1,2.0533379E-3,2.7324382E-2,1.933925E-1,6.936372E-1,6.580135E-2,1.18695885E-1,3.5712295E-3,1.280944E-1,-1.40830325E-2,3.353571E-2,-6.115389E-2,4.8296954E-2,-1.01749554E-1,-2.6403276E-2],"split_indices":[65,215,68,65,165,327,189,0,0,0,0,0,0,0,0],"split_type":[0,0,0,0,0,0,0,0,0,0,0,0,0,0,0],"sum_hessian":[5.362067E3,4.5899424E3,7.7212427E2,3.5073647E3,1.0825779E3,5.5650017E1,7.1647424E2,3.499268E3,8.096742E0,1.0088599E3,7.3717995E1,3.222758E1,2.3422436E1,7.0188513E2,1.4589082E1],"tree_param":{"num_deleted":"0","num_feature":"360","num_nodes":"15","size_leaf_vector":"0"}},{"base_weights":[-3.2821489E-3,-1.011367E-2,2.0526265E-1,1.07079454E-1,-2.1993192E-2,1.2205336E-1,7.504939E-1,2.2846999E-2,3.047681E-1,4.1205157E-2,-4.706105E-2,-1.8391445E-2,3.9635763E-1,-3.4443817E-1,1.025458E0],"categories":[],"categories_nodes":[],"categories_segments":[],"categories_sizes":[],"default_left":[1,1,1,1,1,1,1,0,0,0,0,0,0,0,0],"id":76,"left_children":[1,3,5,7,9,11,13,-1,-1,-1,-1,-1,-1,-1,-1],"loss_changes":[1.3067065E1,1.2365855E1,1.3107198E1,1.3606129E1,1.2777379E1,9.777109E0,1.1891922E1,0E0,0E0,0E0,0E0,0E0,0E0,0E0,0E0],"parents":[2147483647,0,0,1,1,2,2,3,3,4,4,5,5,6,6],"right_children":[2,4,6,8,10,12,14,-1,-1,-1,-1,-1,-1,-1,-1],"split_conditions":[7.2847396E-1,3.0724354E-5,6.803665E-1,3.5290936E-6,3.279722E-1,5.9997916E-1,3.209734E-4,2.2846998E-3,3.0476809E-2,4.1205157E-3,-4.7061048E-3,-1.8391445E-3,3.9635763E-2,-3.4443818E-2,1.025458E-1],"split_indices":[197,329,325,311,211,100,45,0,0,0,0,0,0,0,0],"split_type":[0,0,0,0,0,0,0,0,0,0,0,0,0,0,0],"sum_hessian":[9.169484E3,8.87956E3,2.8992554E2,8.165148E2,8.0630444E3,2.5259946E2,3.7326065E1,5.733385E2,2.4317625E2,2.2897449E3,5.7732993E3,1.6767975E2,8.491971E1,7.441334E0,2.9884731E1],"tree_param":{"num_deleted":"0","num_feature":"360","num_nodes":"15","size_leaf_vector":"0"}},{"base_weights":[-1.2998298E-1,-9.6403396E-1,2.59879E-3,-9.937153E-1,1.2015906E-1,1.26252035E-2,-4.6956968E-1,-2.0164947E-1,-1.0073625E0,5.572771E-1,-7.6105964E-1,-2.8913103E-3,2.8358236E-1,-8.395425E-1,1.4153731E-1],"categories":[],"categories_nodes":[],"categories_segments":[],"categories_sizes":[],"default_left":[1,1,1,1,1,1,1,0,0,0,0,0,0,0,0],"id":77,"left_children":[1,3,5,7,9,11,13,-1,-1,-1,-1,-1,-1,-1,-1],"loss_changes":[5.9439307E2,2.3844543E1,2.1967457E1,7.5550537E0,8.335206E0,1.9102968E1,2.193346E1,0E0,0E0,0E0,0E0,0E0,0E0,0E0,0E0],"parents":[2147483647,0,0,1,1,2,2,3,3,4,4,5,5,6,6],"right_children":[2,4,6,8,10,12,14,-1,-1,-1,-1,-1,-1,-1,-1],"split_conditions":[9.361783E-2,1.709125E-1,3.0072162E-1,1.0282828E-1,3.0192238E-1,7.4979275E-1,1.566174E-1,-2.0164948E-2,-1.0073625E-1,5.572771E-2,-7.610597E-2,-2.8913104E-4,2.8358236E-2,-8.395425E-2,1.4153731E-2],"split_indices":[251,233,342,183,329,310,206,0,0,0,0,0,0,0,0],"split_type":[0,0,0,0,0,0,0,0,0,0,0,0,0,0,0],"sum_hessian":[5.3742104E3,7.362578E2,4.6379526E3,7.1672003E2,1.9537786E1,4.542468E3,9.548523E1,1.2407044E1,7.04313E2,1.3305406E1,6.232381E0,4.2973657E3,2.4510175E2,5.9244167E1,3.6241062E1],"tree_param":{"num_deleted":"0","num_feature":"360","num_nodes":"15","size_leaf_vector":"0"}},{"base_weights":[-1.24929346E-1,-9.8742896E-1,-9.33876E-3,-1.0165315E0,-1.3960417E-1,2.9349604E-3,-6.720001E-1,-3.854003E-1,-1.0239155E0,-6.049627E-1,7.825707E-1,-8.299247E-3,3.1703E-1,5.8105E-1,-8.817903E-1],"categories":[],"categories_nodes":[],"categories_segments":[],"categories_sizes":[],"default_left":[1,1,1,1,1,1,1,0,0,0,0,0,0,0,0],"id":78,"left_children":[1,3,5,7,9,11,13,-1,-1,-1,-1,-1,-1,-1,-1],"loss_changes":[5.279931E2,1.5300964E1,3.799432E1,2.4246216E0,9.884604E0,1.6189238E1,2.2843891E1,0E0,0E0,0E0,0E0,0E0,0E0,0E0,0E0],"parents":[2147483647,0,0,1,1,2,2,3,3,4,4,5,5,6,6],"right_children":[2,4,6,8,10,12,14,-1,-1,-1,-1,-1,-1,-1,-1],"split_conditions":[8.772154E-3,2.1998629E-1,3.1385434E-1,1.0639704E-4,5.2289677E-1,9.4392014E-1,3.0125529E-3,-3.854003E-2,-1.02391556E-1,-6.049627E-2,7.825708E-2,-8.299248E-4,3.1703003E-2,